25878 10
the -0.038661867 1.8957717 1.2995113 -2.0138686 -0.5140505 0.42467743 2.690694 2.1862106 -0.07848165 1.047105
, 0.7035948 -0.61379427 1.6853491 0.0832224 0.14886004 -0.7810826 0.5177049 -0.14593959 -1.5730383 -0.30930012
. -0.6304291 -1.4186096 1.011844 -0.89376074 1.3791677 -0.6277068 1.2432377 -0.90567225 -1.723266 1.1239405
of -1.2861443 0.10628813 1.8063279 -2.8840308 0.3217961 -0.019010171 2.8372958 -0.13315125 -0.98769236 0.6553388
and 0.3512783 -0.3502257 0.21962947 -2.0678735 0.44525656 -1.9709655 0.580029 -0.18176869 -1.740765 -0.35754406
in -1.4726377 -0.59099597 3.1689503 -1.6746863 0.3234344 -1.5328363 2.626919 -0.5784098 -0.81481576 0.8162467
to 3.858107 -0.011253102 1.2355529 -5.837908 1.2598077 -2.5120804 2.2750416 2.2268689 0.9776684 2.814053
a 2.2129014 0.8475938 -0.13695066 -1.4178644 -0.78205144 1.4082133 2.875502 1.2404106 -0.76785856 0.29865226
-rrb- 0.3847765 -1.911389 2.263594 2.058786 0.22000372 0.47612622 -0.9963802 -1.8609523 -4.16687 2.3914125
-lrb- -0.83471966 -2.8608167 2.9701807 2.3765697 0.67047584 0.96709335 -0.703318 -2.1866176 -3.870406 1.2103108
is -2.1871173 -3.9305904 2.763824 2.1458423 -1.5584389 4.060034 1.4008318 3.8827643 0.38161954 -3.660187
as 1.277307 -1.4346695 2.1282158 -1.6598183 -1.3680804 0.055052932 2.4023252 -0.83399945 -1.6932638 -3.1769726
was -0.9188758 0.8309159 3.5534787 3.6142433 1.6255031 -0.45962703 2.0628536 4.344095 1.9539735 -5.5384912
by 0.8805783 0.19548443 1.4749873 -1.4641825 1.3115549 -1.8001183 1.8414886 -0.33977422 -0.6254194 -2.5474637
for 0.29735884 -1.4387155 -0.22502178 -3.8703852 1.4048139 -0.42065918 3.9172606 -1.1849339 -1.1567082 0.2084581
that 4.0680847 0.90598613 1.1123857 -4.2894297 -1.2514834 1.2681507 4.647295 3.893314 1.4857677 0.8791377
: -1.7965704 -3.2345617 2.414512 1.2307968 2.0728211 3.2670765 0.47983864 0.07031889 -2.0081766 4.5991917
with -0.021125464 -2.7173328 -0.5954644 -2.7164886 1.5005271 -2.9354646 2.6424491 -0.78951144 -1.1941826 -0.73331696
- -0.8008106 -0.92691815 3.5831912 -0.64122474 5.7673206 -0.6930566 -3.0001562 -4.2202177 -6.470077 4.3308444
on -1.3966417 -1.1361479 0.97932637 -3.257343 3.0992322 -1.4662877 4.0210834 0.5894762 0.46352884 4.0419183
's 1.1785845 3.646367 0.7395249 -1.2979693 3.9079578 0.5394878 3.4832551 -0.7748168 -0.5855423 -0.32417616
from -2.292154 -2.169815 2.158277 -2.6633518 1.1958836 -2.1653423 2.3471458 0.5182467 -0.26751664 1.800219
are -3.0176153 -7.222802 0.78188455 1.3992305 -4.098395 -0.517354 -3.8864386 7.623965 -0.9995901 -7.449853
it 4.5419188 0.9369809 0.6277671 -0.19457605 -3.946928 1.5904272 4.4354815 5.6603556 0.90835863 0.16917485
his 5.349754 6.94589 -1.7727772 -1.1508857 2.2276108 -3.1010752 4.860938 2.5645893 -0.096096106 -4.632121
or 2.376731 -3.0485835 -1.2663113 -1.6187975 -1.1648839 -0.10970243 0.5356551 0.7445794 -2.1137383 -0.72730476
an 3.2928662 1.9217495 0.19542383 -1.2650537 -0.37284866 4.2783484 1.4583209 2.2367074 -0.40137503 -0.31236005
he 5.7301946 5.3264904 1.0740227 1.742987 0.06580845 -2.4422388 5.2005267 5.287689 1.5961858 -3.2188966
be 0.89130366 -1.2483742 -5.5981293 3.752694 -1.6216477 3.9864492 3.833173 10.002455 1.4126029 -7.344508
at -2.7291913 -1.3574146 1.8715262 -1.1964189 1.9406918 -2.7838504 6.8616242 -0.44275042 -0.075753935 2.9587553
which 2.215956 0.81462985 0.6931016 -2.882704 -2.1714356 0.49929625 2.8983524 2.3074574 -0.25841552 1.6038126
this 3.8473196 3.005194 1.1649684 -3.4487023 -1.950008 4.241265 5.3376656 4.659795 1.1582849 1.1346745
; 0.21410331 -2.2238302 2.7699544 0.25476074 -0.47869337 0.437072 1.319235 0.45385703 -0.91065466 1.5825971
not 7.2153587 0.57825935 -1.3930387 -3.8711743 -2.3647537 1.2213155 5.2307177 4.236425 0.35058987 0.92504734
also 1.7967758 0.6050361 2.7833984 -1.488594 -2.2766483 3.2094264 1.9806554 0.9909459 -1.30415 -0.1700563
have -5.791717 -4.3935614 -3.9259965 1.4100614 2.543961 0.30032173 3.3728867 7.170473 1.6903051 -10.301433
were -2.6557093 -2.4391494 1.6596274 2.3008258 -0.97866195 -5.1817255 -1.8341125 7.102215 1.0179586 -8.703926
-- -0.78373456 -3.1534119 4.048801 4.0245714 2.1363165 -1.3308148 -0.7999816 1.0998338 -2.9685507 3.6606462
but 2.3221736 -0.90082854 1.9019381 -1.9928985 -2.0009336 -1.2848228 2.9194057 3.4853265 0.92601043 -0.5868248
has -7.902797 -3.980509 0.22473289 1.9713829 3.8358269 2.554088 4.178355 3.9813762 1.5452325 -8.806185
one 0.8736402 0.23792627 -0.77081716 0.29989174 -2.922391 0.79297763 5.048634 2.999543 -0.44064036 -0.33414575
their 3.673899 2.941885 -3.0993264 -5.4196224 -0.13437682 -3.4088666 0.7209773 5.060695 -0.17032088 -2.0315704
other 0.802228 -1.1812787 -1.3570249 -4.0666537 -3.7054965 -1.1542308 -1.8360662 3.2277417 -3.0175245 -2.0022247
its -0.048014097 2.475835 -1.1983925 -3.6069634 -0.9928334 0.4119226 2.3583353 3.9135416 -0.23110333 -0.26397428
had -3.332663 -1.1924927 0.5777309 1.7971946 4.8659544 -3.9682865 3.8551257 4.6841664 2.6668851 -8.278528
they 7.206249 0.7967855 -0.124647856 -2.791376 -3.5725584 -2.4631622 2.0397866 6.6639237 0.77124554 0.62482315
some 2.6665864 0.17119983 0.6755887 -4.025185 -4.678839 -0.11631011 -0.25854182 4.8089194 -0.9089647 -1.8726281
american 1.3943712 3.866251 2.7352927 -4.3261676 2.0920484 -1.3516009 -3.1898787 -2.973922 -6.2960567 1.4272971
first 0.72606975 2.9388804 1.8774853 0.038932312 0.49009326 0.34775415 4.324587 0.8869648 -0.19384697 1.5900605
been 6.579414 3.1373832 3.8924408 0.058985937 -6.6050296 -2.2281218 -1.0076127 7.5762954 -0.017041093 -2.992497
most 0.59742 0.5321184 1.7500687 -3.2972076 -5.38873 -0.32276928 2.3989692 2.2282448 -1.9324552 -3.5446546
more 3.568651 -1.5865682 -3.3465543 -3.1412976 -4.408519 -2.49372 3.9472988 1.4311969 -2.7835097 -3.2839694
who 7.1903243 3.652728 0.14570281 -2.3836188 0.34166393 -4.5551586 2.6163778 0.5753494 -0.8763964 -2.4268372
all 0.81928504 -0.7856517 -0.03808782 -2.7874396 -3.143077 -1.2515488 1.1614778 5.3880954 0.27034456 0.91018957
can 4.811522 -7.68008 3.7223296 -4.4421744 -0.95071006 -0.14530925 -2.9079297 4.262097 -0.2826413 1.0687376
many 1.7067899 0.8196075 0.5055965 -4.213309 -4.879346 -1.5510464 -0.119536966 4.015077 -1.647301 -3.421241
such 3.9872417 -0.76605034 -1.1783015 -3.1267524 -2.8666105 0.52264285 -3.2140014 0.86712104 -4.1182313 -3.960368
there 1.8366549 -1.621464 1.0584103 -2.4781456 -4.6130815 0.57239425 5.3208227 2.6453025 -1.057117 1.6031752
new -1.0854628 2.1563191 5.3920403 -1.6437074 0.7738209 1.5456549 0.9147786 3.084674 0.9254397 3.4486105
after -0.87759185 1.0477394 2.2868102 -0.5963314 3.2424965 -5.0995936 6.3007207 0.60178894 0.7441104 0.3044393
used 3.4816906 -1.3637124 1.3316733 -2.3785121 -4.203004 3.579596 -0.5524136 1.8447027 -2.7391703 -0.039705746
into -1.8246083 -2.9112735 1.6076407 -3.8340635 1.138912 -3.6515899 3.0068204 1.9048277 0.63778025 1.5861312
when 2.156682 -0.4144912 2.2983549 -1.8929249 1.6846834 -3.0511336 4.7807446 1.3597511 1.3715504 1.8763009
two -0.080950335 -1.6684432 -0.3667025 -0.87513024 -3.7878406 -3.1324162 1.220246 3.1799986 -1.5382642 0.17380907
these 2.6923873 -0.90932375 -0.7492886 -5.539484 -4.9034424 -1.1240062 0.5297373 5.416622 -1.2221687 -0.5946059
than 1.5904068 -7.4438343 -2.7949328 -1.3601859 -2.4808042 -5.6276145 5.9456644 -1.945948 -4.0244193 -2.2171493
see -2.4067562 -1.2199621 2.1654737 3.2666175 0.11854716 8.231042 -2.3500438 2.6747227 -2.4034066 -1.9141567
time -0.084526256 1.3869991 -0.1013786 1.4550954 -1.8547465 -0.19444989 5.3905625 5.029299 0.6927653 0.25981542
' 2.0449169 0.23059267 -0.9271074 1.3747425 1.133133 2.845691 4.926485 -1.6456075 -2.0864954 -0.9981616
only 2.2340221 -1.4625481 1.2724959 -0.8762019 -2.6018167 -0.33057362 2.9005647 3.3146827 0.35810012 0.4057555
may 4.215705 -4.4216847 5.191127 -2.7141228 -0.56664026 -1.8996418 -2.4421532 2.6929026 0.30191082 2.718112
world -3.88853 2.7188368 1.9221499 0.40717348 0.4201293 2.5374732 2.6263213 4.613655 0.35950592 1.1272244
would 5.151831 -3.2586527 4.9763117 -4.435426 1.4290065 -3.204443 0.5355318 3.7384806 2.1267176 2.5483673
war -2.7834089 7.129599 2.6234608 0.4466997 4.3737254 -1.4674444 1.4697855 7.182201 1.3374907 1.5092442
about -0.8598917 -2.9142137 0.2042342 -0.15164912 -0.38227907 -1.0820153 4.468014 0.2182067 -0.91591513 2.236629
states -2.389248 0.56162083 6.350146 -2.5498543 -2.1259038 1.7862259 -4.4304066 7.633804 -0.066836424 6.1865153
people 0.61250424 0.54751164 -0.37317815 -1.4276494 -1.8691343 -2.6865618 -0.053056855 3.3144188 -1.0978048 -0.70849395
however 2.1374602 0.26512653 1.8793752 -2.175826 -2.4056475 -0.567304 2.748186 3.1804433 0.19968633 -0.5910543
% -2.0940316 -6.3351965 -1.3555286 2.08442 -3.1329992 -7.0662436 -1.6803328 3.430012 -5.2420835 3.922438
between -2.9182587 -3.9050384 1.5860347 -3.8394544 0.8585971 -3.470678 1.8910143 0.3339721 -0.7575216 1.8550407
years -1.9278275 -0.43721628 -1.2954549 5.740565 -2.6004431 -6.5611258 6.988818 3.834306 -1.7478248 -2.2562077
united 1.3875151 5.154737 8.404751 -3.9419599 -0.97515094 -0.044356555 -5.4410152 4.994956 -1.5560502 1.1355225
no 5.624004 -0.43018615 0.30837658 -1.7948586 -3.6111608 1.2353556 2.6122632 4.520529 0.24014516 0.4151737
i 7.088075 2.979387 1.6161195 3.531423 2.9890523 2.4301522 3.0354862 3.3185802 0.70274234 2.661554
over -1.5534637 -2.3902767 0.23241854 -2.0046077 -0.17996642 -5.1219554 4.2916293 1.8689406 -0.052111346 1.9576331
during -3.2654657 1.1641997 3.3417487 -1.9329361 2.7265089 -4.4083695 5.9201946 1.0954175 0.69293535 0.012691147
use 0.43975517 -1.8268322 -2.1197288 -2.265524 -2.0448916 3.1999881 -0.22107747 4.064287 -1.6076499 -1.8010465
known 1.9057175 -0.13580851 4.033172 1.2625241 -5.115682 2.6952014 0.7965847 -0.41713348 -3.706302 -2.5536535
b. 2.2632225 2.2698941 3.9230692 5.4635277 8.845168 -4.893244 -8.67111 -4.200811 -18.06343 -0.50992537
d. 2.3487933 2.9719129 5.4381137 5.808957 8.237226 -4.6706424 -9.345338 -3.6652915 -18.192715 0.054082096
called 1.6066699 -1.6831707 2.9939923 -0.009648976 -2.2182133 2.6624224 1.0172879 -0.51786894 -2.2563791 -0.04544585
= -0.55651647 -3.9096093 2.0563352 1.3964701 -1.0914934 5.562895 2.3623736 -2.338579 -6.0859485 5.0075455
history -3.5976148 3.4766326 2.0582426 0.17764618 -0.8029883 4.2678356 3.0612712 1.0850109 -2.4276273 -0.44833487
1 1.2926741 -3.1129427 1.1460932 4.1981273 -0.8081595 0.74050266 1.8286024 2.4268112 -2.662781 5.969605
them 4.2634954 0.7843015 -2.4932902 -1.9415461 -0.9566188 -3.2748897 1.0288366 6.792343 0.73420584 -0.50733256
him 5.689574 4.3033314 -1.7538321 1.1301268 2.5679557 -3.74979 3.0611525 5.7194304 1.5063827 -3.1575465
while 1.0735459 -0.9794462 1.2299216 -2.489534 -0.7564952 -1.9554982 2.3762636 1.1831567 -0.28996584 -0.015438789
being 1.0176444 0.06555366 -0.107381746 0.19417615 -2.0092819 -0.8599794 2.174308 4.1340594 0.35262674 -3.9314175
english 1.1615247 1.8393009 3.4121568 -0.42690438 -2.5819054 3.33595 -2.24125 -1.5388935 -5.5085382 -1.1268239
where 0.15761225 -1.4085069 3.1655889 -2.1231413 -0.997556 -0.6913246 3.386842 0.61612767 -0.05674873 2.4572313
system -0.1513455 -0.9756852 -2.3937876 -2.4575605 -1.0242212 4.632006 1.0810872 2.8520827 -2.015303 0.291572
state -2.6616995 3.1168115 2.3764417 -2.3515637 -0.14052668 0.26056668 0.4654385 3.4455152 -0.6659123 1.4275479
often 4.092357 -0.5926126 0.16456868 -3.1394267 -3.4908974 0.96206033 1.4403794 2.21602 -1.647091 -3.1319652
city -4.4585223 2.7436712 3.613292 1.0016422 -2.0451899 -0.81944644 2.5776014 3.0211403 -1.4247686 1.0953789
if 4.845919 -4.1647654 0.7645861 -1.4185518 -1.2367114 1.3727425 4.994081 3.3622334 0.5476002 3.1588926
made 2.6248045 0.396638 1.4467775 -2.2857623 -1.0293657 -1.195852 2.4857614 1.3154901 -0.49186105 -0.15851845
any 4.002885 -0.042650472 -1.8185107 -3.8891814 -1.6844239 2.4161816 1.3637433 5.3418055 0.045765042 -0.2868407
up 0.9422129 -1.1384425 -1.4103357 -0.2509573 0.78325933 -4.0780687 2.6163116 5.0084043 1.1726346 2.282104
under -0.7517643 0.32740408 2.5544662 -2.9407017 2.3462088 -2.3914795 1.8272098 0.5316154 0.09423489 0.905103
both 1.9487644 0.9269092 -0.24328116 -3.1135545 -2.1879432 -1.3120164 -0.36841473 2.133756 -1.7568825 -1.5965165
will 4.0904713 -4.2351213 2.9401658 -4.1257873 1.6483595 -1.5533962 0.2009635 4.546265 2.0180607 3.1949468
so 3.85465 -1.6239635 -1.1949378 -1.336271 -1.8314145 -0.47696906 4.270447 3.367697 0.25337076 -0.5800747
later 1.1702989 2.0611222 1.7944227 1.2026328 -0.40098983 -3.1187074 4.240246 1.5276242 -0.276053 -2.7155175
her 6.310758 5.106754 -2.9909868 0.95945203 2.3119962 -3.2464943 4.7617083 2.423384 -0.52818984 -4.2899218
out 1.8079731 -0.1833006 -0.35137743 -1.8572005 0.86589134 -3.0646565 3.0751512 4.852049 1.7983656 1.8694105
` 1.1497201 -1.6943523 1.8079559 4.036499 -0.5721567 6.7553725 4.930708 0.19625887 -2.0386553 -0.627646
british -0.37908712 4.607271 3.3044374 -2.2505302 0.8850281 -1.7185124 -1.3911068 0.30145252 -2.793433 -0.8801518
name -0.87127787 1.2016171 2.4352996 2.0962424 -2.4898627 4.1132574 3.9722118 1.5604398 -1.1614733 -1.1153754
century -2.5164223 4.296821 7.388903 2.3574655 -5.027322 -5.5249143 3.9395423 2.510033 -2.6675124 -4.0681663
number -1.4337575 -3.024213 -1.3120874 -0.45583448 -4.167483 0.60334074 1.7288461 3.530839 -1.8299215 -0.39449468
then 2.6762185 -0.39682204 0.7185843 0.59627384 0.2793099 -1.2583035 2.9171586 2.8708582 0.7215068 1.1076009
government -1.1615136 4.939502 1.2498988 -3.6091542 1.1717864 -1.559646 -0.73782474 4.92479 -0.02213804 -0.447095
part -2.0478761 0.894339 3.0278845 -0.25841165 -3.0008314 0.46658108 2.741052 2.406625 -0.8845536 -0.3014675
since -0.5409306 -0.2141427 3.8724878 -1.1136101 0.04728346 -1.2483842 3.5068967 0.2645163 0.16699475 1.6228089
2 2.1982288 -3.3321016 0.51783305 4.485803 -0.47805044 0.772214 1.7849551 1.8742867 -2.9480293 5.148607
through -1.2602496 -1.1449717 0.18857288 -3.6684492 1.724882 -2.267829 2.6987686 1.4306906 0.107594594 0.92224616
early -1.0094696 2.9779267 2.3668118 0.21744072 -1.6861686 -2.0010667 4.542173 0.34447256 -1.6747695 -2.7456064
because 1.4547309 -2.223386 1.281122 -3.3776724 -1.0940509 0.52424693 4.409647 2.37021 0.45696837 0.14734915
national -4.8647337 3.8713214 2.5101972 -2.3456986 1.8304262 1.7903107 -0.20848452 1.0336688 -2.9330537 1.3059224
well 2.939128 1.0131468 0.2625484 -1.2156059 -4.401501 -1.0545096 -1.0404602 1.1793859 -3.7272236 -4.4585905
even 3.0754292 -1.0466969 -0.49496558 -1.1033876 -3.054113 -1.1883569 2.19315 3.4681265 -0.5890697 -2.6127071
south -5.928442 -0.17848845 4.978923 -0.0036521985 -2.9835992 -3.6409802 -1.7202591 2.9221017 -3.8022666 1.582032
although 0.7396957 -1.6794722 2.9156759 -2.1460378 -1.8511257 0.4198895 2.132039 1.5597302 -0.29453868 -0.98959297
life 0.5412488 2.117605 -2.0703297 0.04174942 0.4201416 0.21107987 5.246776 1.4874709 -0.785004 -1.0896051
against 0.44511244 2.042742 1.7562705 -5.3592143 4.038082 -3.5578084 1.5531514 1.659651 0.5227187 -0.22323467
became -2.1365104 0.9112186 4.7213826 0.87078834 0.55668 -1.6413144 1.8093554 0.87770337 -0.47448036 -5.6457505
2005 -0.77482444 1.8784256 1.2295214 4.1933303 1.1208304 -1.3161132 1.6125859 2.053989 -2.3858712 4.2779336
before -0.18488942 -0.11784459 1.5882618 -0.6293368 1.9898005 -3.858829 5.8956842 1.6861072 1.2667578 0.9259847
three -0.890904 -1.1187918 -0.13589425 0.010076457 -3.0865176 -3.4319484 2.155631 2.9338243 -1.3567389 0.084663555
same 2.3011522 -0.3833322 0.61616063 -1.3417577 -3.2995698 1.6055975 3.9284072 3.3361704 -0.26974407 1.9665474
each 0.39339012 -1.895382 -1.5759834 -1.7334957 -2.9881084 -0.34213087 2.4313722 4.6741962 -0.7217709 2.39229
much 2.3374782 -0.73439765 -1.0344511 -2.6380746 -3.7971556 -1.2009766 3.9036262 2.601589 -1.1954633 -1.918561
several 0.13875405 0.8284944 0.27281633 -2.362331 -4.1056046 -2.7575746 1.0348858 3.1294482 -1.7298877 -1.98398
like 1.5814189 -2.6152625 -0.56103134 -1.7917975 0.23015955 0.09388516 1.0149642 -0.56665885 -2.0272346 -0.9974969
\ 7.8203034 -6.236973 -0.18968064 3.3222075 -1.0011708 7.36103 0.02982332 3.6590624 -8.06732 6.648462
including -2.0212877 -1.5453084 -0.20247275 -2.1573873 -0.039050307 -1.5684597 -1.0890766 -0.95553786 -3.5154822 -1.8880515
work 1.2543519 2.4763165 -1.9607502 0.12108035 -0.20503668 0.7826788 4.4031034 1.7157116 -1.0325377 -2.148637
could 5.578555 -4.7156425 3.522636 -3.8927095 1.664125 -1.879273 -0.6110333 3.9445095 1.5998471 0.75509876
ii 0.8550254 3.9276202 2.1771815 2.4543 4.3307133 0.9099444 2.210732 0.8870697 -1.1875623 1.2562497
now 0.7166647 0.1511858 3.592477 0.09366766 -2.6586988 0.87709403 2.2429988 1.7181885 -0.5519784 0.3008306
those 2.7228892 -0.8106685 -1.0439532 -2.0617802 -3.5071318 -2.612076 -0.9346884 5.628873 -0.8649345 -3.0840921
example 1.1302531 -0.6441034 -0.7328355 1.1942046 -3.6881325 4.236446 1.6685325 2.255466 -2.7173462 -0.44432592
form -0.61059797 -2.542929 -0.6797249 -0.7301354 -3.1047485 2.8912258 1.6716846 2.4058871 -1.9181616 -1.3646388
very 2.0724108 -1.8149692 -0.75846386 -2.3278646 -4.1757903 -0.098856255 3.504503 2.3656535 -1.4857589 -2.1718354
links -3.6441913 2.567292 -1.053129 1.5395572 7.007386 8.84387 -0.5334705 2.2908547 -3.3858588 0.6261172
great -0.39111403 2.572417 1.6166224 -1.5034784 0.02772081 -0.9239966 3.1832411 0.5236777 -0.88029677 -1.7250079
found 1.2189969 -1.1652335 2.5480244 -1.5271451 -3.125902 0.42054817 1.0821317 1.7037878 -1.1070919 1.0821283
do 3.4967773 -4.8377404 1.976027 -1.4566573 0.8711909 1.6906621 -3.178379 6.483895 0.844225 0.32987067
de 1.4882437 1.917394 4.0745425 4.2713337 1.0098509 1.5396718 -1.3860713 -2.1717832 -5.5869455 -1.7959915
external -2.7046053 1.3631899 0.02532758 -2.7802982 5.3595643 5.9782295 -0.24930711 1.8843262 -3.0023 6.5476036
what 5.43328 1.315212 -0.09990381 -1.892513 -1.455103 4.0180697 4.8328876 4.481962 0.904659 1.5516673
year -2.1649437 0.08225223 1.5985479 4.1987076 -1.2025433 -2.62598 6.6604314 3.2480328 -0.06546583 1.3059415
king 1.3883076 5.5378065 3.1036484 4.5529513 2.1123307 -1.400555 2.5700188 1.5477294 -1.5878934 -2.0023685
university -4.8399076 6.516415 4.404804 2.4079604 1.3106639 2.6223366 2.2513177 0.9763972 -4.2516074 0.98972964
french 0.66854364 3.443114 3.3108144 0.6996854 -0.08110324 -0.35667977 -2.3439023 -1.1182414 -5.319008 -1.2096722
day -3.6966305 1.7106807 2.5873468 2.8664618 0.07230971 0.73132 5.512074 3.6862946 0.02033968 3.34044
language -1.2216865 -0.12421923 1.7017918 -1.5339404 -4.1165433 5.489068 0.98362863 1.1213744 -3.4651983 -1.8315445
god 4.854508 1.481195 0.25507748 0.26878864 -0.52057123 2.5707948 4.248632 3.5577528 0.7993572 0.09367671
north -5.181142 -0.18572582 4.3163795 0.16892691 -3.3893163 -3.6877022 -1.3023089 3.3004997 -3.2935562 1.0909754
another 2.8651037 1.5209199 0.15379573 -0.71839505 -0.610775 1.7769176 3.1965463 1.8633485 -0.21589696 -0.6385171
general 1.0101233 2.8642392 1.7433076 -1.3209982 0.8795521 0.59516835 -0.4968033 0.6313629 -1.5200992 0.043491293
she 6.3199325 3.265211 0.1948772 2.7848082 0.27594927 -1.1468985 5.8753195 3.6416807 0.7119437 -2.070681
large -0.87216014 -1.5353832 -0.29129124 -3.2886379 -3.1770895 -0.33757374 1.3188056 2.9449916 -1.6224233 -0.5565049
country -3.6299841 1.9424765 1.5859239 -1.3182441 -2.3789868 -0.28042555 1.9862223 3.4667618 -1.4256684 0.5778314
still 2.2451403 0.007359602 1.304136 -2.705219 -3.5660276 0.37271342 3.2228022 2.5352368 -0.63965255 -0.51268214
common 1.0661376 -0.89994776 1.2124163 -4.3139553 -4.2230783 2.7188506 1.173704 1.9127392 -2.702052 -1.1295267
power 0.5548387 1.1393702 -1.6671172 -2.315881 -0.35560986 -1.7126979 1.3385754 3.6763816 -0.43765464 0.50877714
3 1.4642869 -2.7715359 0.29014853 3.9668155 -0.5156608 -0.46526277 1.0321301 2.147915 -3.347948 5.113396
modern -0.6862826 0.5997154 1.4570065 -2.4775226 -2.8403149 2.9830625 0.9645426 1.1187669 -2.5109777 -1.9520489
second -0.8312598 1.8801614 2.4576955 0.6575138 -0.24337907 -0.1493579 4.89919 1.4423532 -0.22491072 1.3360285
did 3.1809635 -1.8092881 6.400746 -1.6166213 2.194889 -1.2926342 -1.4538846 5.205065 2.7998056 -0.86346745
different 0.79998136 -3.119677 -1.7356999 -3.7531834 -5.065251 0.895907 0.08479224 4.9969482 -2.3176105 -0.23585397
area -4.6039023 -1.7807994 1.7147561 -0.037593167 -3.5409315 0.31560007 1.8370215 3.0406246 -2.212315 2.458238
german 0.233689 3.0273433 2.537071 -1.060658 0.6701315 -0.99082077 -2.4410439 -0.743436 -4.0426354 -1.0528303
own 0.23450863 0.08333318 -2.0842905 -4.268375 1.0593288 -2.0368023 5.433677 1.8005024 -0.7631778 0.395695
until -0.53990626 0.38089567 4.4716086 0.3629401 1.6852105 -4.2810984 3.8381019 1.5545659 0.9027171 0.89591384
major -1.856446 1.2508024 1.1081349 -3.378686 -1.5522048 -0.22397253 1.5252347 0.07503547 -2.7625124 0.33856264
death 1.6774594 2.206324 -1.2670577 2.368733 0.6865758 -3.096975 5.0655336 2.3502722 -0.70140433 -0.50951976
c 2.6368043 -3.2927232 -0.2378225 3.883257 -1.4798155 2.4225662 0.61034054 -0.19348249 -4.686199 1.926671
john 3.4645338 3.821895 2.5370338 3.7145638 3.13143 -0.39190176 -0.42418864 -1.5989827 -4.619842 -1.2302029
2004 -0.67598003 1.8828245 1.514316 3.9904873 1.3946332 -1.1982229 0.53026253 1.7803129 -2.418465 3.0647495
church -2.7260578 3.9859765 3.6779315 -0.25867635 -1.4800154 0.6231326 2.470182 1.9573332 -1.5890019 -1.3076285
population -4.0455723 -1.6430494 0.12028632 0.25401846 -4.39063 -2.656465 1.7399422 3.3292828 -3.158533 1.970189
high 0.110930055 -2.302694 -0.93620884 -1.2568198 -2.7159529 -1.7217882 1.510733 0.9022218 -2.3822923 -0.10970004
list -3.535117 0.5689419 1.0064392 -1.8647889 -1.987857 6.8334365 -1.6092707 3.1175933 -4.095908 -0.35799906
include -2.911179 -3.3908088 -1.0257655 -1.0685748 -0.5105032 2.1677692 -2.2284608 1.6659687 -3.1996512 -2.2159462
though 1.9789077 -2.1190093 2.7106833 -1.7638162 -2.3747432 -0.15672514 3.1649573 1.7944604 0.09340721 -1.374514
we 7.946947 -0.67651564 -0.6715801 -0.8454629 -1.5193832 2.6848135 2.5643485 6.3268514 0.95332026 3.8203943
law 0.6865543 2.308389 1.7044828 -1.7866311 -0.08234787 2.843584 -0.41786975 3.1001048 -0.38878077 0.57025635
series -0.9676329 1.7425548 -0.84950215 2.2656124 0.29272366 0.44314256 3.2482045 0.63700384 -1.8812934 -0.44001588
group -0.6331835 -0.7713798 0.20223191 -0.53082615 -2.3250816 1.2674649 0.6442315 1.5231807 -2.0407963 -0.89655787
president 1.442344 6.092607 4.981306 0.98275495 2.5854163 -1.784717 -1.2966096 1.6323173 -1.8946476 1.1148915
order 1.5748477 -0.32478943 -1.107284 -2.2761753 -0.56151384 0.24634977 -1.0046402 4.3536882 -0.37191382 1.5861343
book 0.35033232 1.6418047 2.0518184 3.2827203 -0.79627687 3.5088508 4.1185875 0.6819642 -1.2069104 0.008628173
usually 2.92038 -2.9100497 0.0457318 -1.4826642 -3.535006 0.91672134 1.3694888 2.1669288 -1.608549 -0.32672834
among -0.29710987 -0.91930467 1.8485425 -4.3493924 -1.9275324 -2.5284634 1.6351644 0.26531154 -2.0045648 -2.5142226
u.s. -1.5242903 3.041339 2.8796425 -1.7281941 1.2958398 -1.024096 -1.9602549 2.6593156 -1.0558603 1.7852864
small -0.5793672 -2.4538724 -0.26945704 -2.1136913 -3.2361147 -0.5463592 1.6957902 2.5230782 -1.6854239 -0.90018713
set 0.88138586 -1.4244852 -0.29165038 -0.2887788 -1.0780966 0.9249087 2.8220696 2.4962413 -0.462477 2.4797008
around -2.4570312 -2.0419047 1.0801567 -0.96406794 0.0041990476 -2.6438973 2.5691736 1.6507716 -0.4677544 1.9515479
end -1.903221 1.1869527 1.1409888 1.0148276 -1.104803 -1.4059348 4.2182956 4.63303 0.3687288 2.3973591
4 1.5369895 -3.1530888 0.17549966 4.3836784 0.20035365 -0.59216964 1.0804099 2.3898997 -3.0037303 5.304847
term 0.88377506 -0.4869874 2.1470158 -0.935184 -3.4692843 3.564123 1.6946994 1.6916187 -1.7710717 -1.6470532
human 1.8090789 0.38828197 -1.8218619 -4.7767906 -0.49981996 2.8220718 1.0932311 3.043342 -1.2275594 -0.48959443
international -3.3187068 2.497547 0.9922801 -3.190015 1.8976665 1.6803815 -1.2534462 0.5566707 -2.9597907 0.6628022
sometimes 3.4099936 -2.2140324 0.9453844 -0.6068504 -3.9586294 1.9995357 1.2368451 1.4413261 -2.4477365 -3.0203257
considered 3.2083902 -1.4262383 4.023794 -2.6225245 -3.7506242 1.1026996 2.2442935 -0.13852136 -2.0085187 -0.5075497
film 0.2687879 2.7011487 0.12700316 1.3334669 2.1053264 0.60808223 2.9014454 -1.9494643 -3.1668801 -0.702757
alexander 2.236485 4.1959434 1.5380948 2.026171 1.809688 0.5832341 2.6023753 0.5162443 -1.335036 -2.5079575
based 1.2855345 2.606093 -1.0690817 -2.0869815 -1.2320724 2.590243 0.83643484 1.672362 -2.3614278 0.9562609
way 0.78520346 -1.0226165 -0.5020959 -1.5784184 -1.6402663 0.3162203 3.582814 4.0216317 0.3007564 0.7386251
main -3.4010787 -0.5644589 0.8696946 -2.6454728 -1.2168847 3.6985564 2.0917194 1.2999424 -2.6266174 2.1952162
air -1.2975243 -0.4751342 -0.9727674 -3.7024202 1.325575 -0.77237177 -3.5664606 3.1221414 -2.598607 3.2522326
military -1.6045105 2.9685385 0.24015187 -3.6681175 1.5684733 -1.4745083 -0.4508705 2.2403293 -1.4884763 0.28000638
long 0.9678021 -0.97239465 0.11575455 0.16322449 -2.1542382 -0.79367495 3.9175358 2.0309527 -0.42125246 -0.12898214
east -4.6843157 0.95393777 4.736841 -0.019540343 -3.225343 -3.8835044 -0.07080795 3.2415946 -3.2655144 1.3428395
west -4.11155 0.6762162 4.1502748 0.6486981 -2.6534867 -2.8709595 0.14897878 2.5082834 -2.7540488 1.5310715
sea -3.947759 -1.28631 2.565858 0.076166585 -3.6340153 -1.4292791 -0.046388596 3.3477576 -2.8061829 2.8393478
within -2.6418562 -2.1440547 1.5065223 -3.761312 -0.94703823 -1.2936515 3.6524584 1.4756298 -0.41746515 0.6958242
due -1.0073595 -1.4219103 -1.3850534 -3.4633899 -0.098006755 -0.23243825 2.6364343 3.0470552 -0.16452257 -0.44764286
2003 -1.0219933 1.6949191 1.2416826 3.609258 1.5871676 -1.0448341 0.28238046 1.2597095 -3.1454132 3.000414
political -0.83729714 3.0377178 -0.32231823 -5.201728 0.7326693 -1.1971345 0.9755541 2.3335867 -1.2852951 -2.1937375
without 2.415053 -2.034776 -1.571564 -3.9865255 1.1084536 -0.62975305 2.931614 2.2466865 0.061472386 0.13062313
public -1.0147237 2.7772427 -0.9878704 -2.9660227 0.708578 0.6623496 0.2696266 2.441829 -1.2942574 -1.3256009
others 3.606141 0.59401965 -0.4005805 -1.3761252 -2.398827 -0.93795335 -0.58888865 3.4326196 -1.2426189 -1.4443038
roman -2.7288353 4.217334 3.9735045 0.16857725 -0.55212134 -0.84597605 2.3942547 0.9413708 -1.925981 -2.7719398
us -0.39328322 1.1091357 0.2119261 -0.59091234 1.3336421 -0.6542586 0.1329004 3.3633873 -0.019527212 2.8924453
age -0.46196803 -0.7935172 -0.9411829 3.30245 -2.232658 -3.0451577 4.0694814 3.0107968 -1.2809787 0.54303443
important -0.53146183 0.109604955 0.9379033 -4.4031 -2.652553 2.1657844 3.5783596 0.6107772 -2.6280808 -1.7626274
theory 1.0532106 0.50526154 -0.95409226 -2.2579994 -1.2130653 5.330213 3.147284 2.392994 -1.3787729 -1.0782467
popular 0.45508412 2.566962 1.3302951 -2.7100313 -2.3924289 0.93138987 2.3956048 0.4282287 -2.4883034 -2.5165255
times -1.9548796 -0.4365044 0.3135109 1.419002 -2.724669 -1.3214709 4.098043 2.5957654 -0.98134255 -0.038065888
using 1.576311 -3.6094768 -2.0482445 -2.3670523 -0.10463235 2.730176 0.95870376 0.98337466 -2.0927877 -0.8350996
last 0.4453619 1.6510575 1.6663988 1.1569545 -0.24115822 -2.0303411 5.740974 1.7476064 0.06617627 1.3555917
following -0.674706 1.1106426 2.312491 -1.4618226 0.038473397 -0.48392496 3.3647904 1.9263401 0.32963023 2.7531505
music 0.089051075 2.708058 -1.1759237 -0.5427583 -0.6257884 2.0620356 1.6597939 -1.3545316 -4.12409 -2.9878416
you 8.475253 -1.569851 -2.0517485 1.5614707 1.3519448 3.3407898 3.1502097 5.094193 -0.14107251 4.4798055
6 0.9565164 -1.8666401 1.0496647 4.776109 0.35927933 -1.3086877 1.3469882 3.0232449 -3.3379767 4.4724793
place 0.75515324 1.0392396 0.9337813 0.07011968 -2.403132 -1.3166121 4.4394927 4.559508 0.68405783 1.3114972
2001 -0.49176934 1.4883322 1.9137661 3.4885085 1.2506517 -1.1671251 -0.15361151 1.8975189 -2.4031541 3.0427012
man 2.904489 0.94060475 -0.2738962 1.8294548 0.25952655 0.3303646 3.8253334 1.3848625 -0.44967723 -1.2082652
said 5.9454327 0.27233893 3.4659448 -0.08957148 -0.3794947 0.57443863 3.0029507 1.360292 -0.038723957 2.5996845
union -2.052925 4.514195 2.6052105 -2.799774 1.0169604 -2.0313442 -1.0963303 4.061911 -1.2553656 1.3597373
word 0.30887395 -0.9841407 2.4076612 -0.5018754 -3.5564258 5.6042557 2.3931324 1.1022574 -2.3220541 -0.12449233
5 0.97318506 -3.3002357 -0.20969376 4.0477166 -0.63130367 -2.1053479 1.1417118 2.4468436 -3.022587 4.5793366
bc -1.510053 0.5718455 3.5689342 6.380953 -0.6530383 -2.8408973 2.678517 0.9306271 -3.030984 0.77311814
land -1.9944762 -1.2545185 0.20684557 -0.92978424 -1.8810103 -0.9276445 0.404319 3.722415 -1.038 1.8171577
greek -1.023778 1.3296775 3.67061 0.9933992 -3.4351199 3.2833962 0.8843332 0.30739045 -3.0339642 -1.9909843
point -1.5015091 -1.6678394 0.119634286 0.60530573 -2.4138324 1.3506781 3.4139051 4.9151654 0.083271295 1.5987753
according -2.3567827 -0.03306935 0.3144798 0.8433176 0.88451135 2.2076156 1.661947 2.1743217 -0.37038085 0.63449943
m 0.2647482 -6.2697277 0.014152845 5.0507083 -2.6975117 1.0204737 0.30902207 2.0836985 -5.423654 4.3825135
old -1.3592986 0.41733766 3.2744074 1.2283213 -1.5985371 0.13299415 3.7554424 0.33739898 -1.2747986 -0.45960015
should 5.452596 -4.3096023 4.820921 -4.358475 1.681139 -1.4264061 -0.7537475 4.4449577 1.8661008 0.5320534
computer 0.7929369 0.9281172 -2.0733907 -1.5592217 1.6140819 4.241191 1.6559207 -0.20490186 -2.8491569 -0.5193245
various -0.18887231 -0.24261546 -1.0092957 -4.274485 -3.603522 -0.28575903 -1.7521179 4.1559386 -2.4636421 -1.6414497
given 2.5511525 0.15431206 0.18865283 -2.0283556 -1.4547982 1.6089758 3.7075489 0.98677295 -1.0895053 1.3251734
line -0.94943905 -1.1260492 -1.18449 0.24623895 -1.2096438 -0.059358794 3.0048072 3.286466 -0.87895304 2.7390535
10 0.32286897 -3.1539268 -0.44593364 4.072706 -0.5608414 -2.9508977 1.8799859 2.363863 -2.8206148 4.1679955
family -0.3092553 1.465433 -0.20485 0.15697128 -1.2614825 -0.47827595 2.083598 0.104833305 -2.6653795 -1.6982808
aircraft -0.5139824 -0.68506736 -2.045758 -3.120773 -0.35799333 -0.38965237 -1.2536746 3.8422067 -1.688133 1.4643521
countries -3.6904664 -0.7380102 1.7581884 -2.874403 -3.3045764 -1.9106295 -1.2328492 3.7122557 -2.6371105 -0.25973678
party -1.659365 4.5924444 1.2843069 -2.592633 0.8327922 -2.1534526 0.40373215 2.6345665 -1.2853757 -1.8312525
son 2.8411942 3.4027972 1.6290454 4.8042135 1.9036199 -2.019979 5.546336 -0.13760123 -2.0461533 -2.3543813
make 0.46773282 -2.791623 -2.494824 -2.0226052 1.3238035 0.45949513 2.659028 4.1008167 0.45877454 -1.0008143
four -0.5634809 -1.285635 -0.16684185 0.24576627 -2.959432 -3.345483 2.2703302 2.9955516 -1.3462533 0.7058811
art -0.70214075 1.5459883 0.50527304 -0.7766749 -0.92188454 4.0712376 1.54083 -0.26246056 -3.2026863 -1.9472601
does 3.9663775 -4.564081 5.088551 -2.6558094 1.2908324 2.8433304 -2.2827747 5.808737 1.6481882 0.8362665
game 0.111145414 1.6666037 -0.8477799 0.33634764 0.6702648 2.2955825 3.111144 0.3012189 -1.7085272 0.18273793
island -3.559527 1.4458158 3.1814575 0.91389817 -1.5393194 -0.8146727 1.451055 2.0184286 -1.9837064 2.0039845
become 3.1110604 1.7047641 0.3344049 -0.55465066 -3.24772 0.1325334 2.3791656 3.8150663 -0.46698162 -2.1328294
case 0.6407118 -0.83466184 0.4423177 -0.52466327 -1.8946427 1.3943489 2.1377225 2.902842 -0.37051553 0.46331614
thus 1.833522 -0.93500876 0.076251775 -1.870257 -1.2329612 0.5302 2.3821652 1.9511011 -0.48129117 0.18661481
2000 -0.28909308 1.3796 1.6090101 4.07642 0.14778751 -0.8559474 0.9958786 1.8598961 -2.345245 2.8322487
named 1.7492429 2.9475608 2.6950362 1.5979949 -0.65539247 -0.18303037 3.3722112 -0.9225008 -2.2768502 -0.59363633
western -3.3961384 1.3913237 3.478657 -2.6762464 -2.8201716 -0.8232277 0.033902455 2.1866605 -2.6409745 -0.8327765
less 3.2901022 -3.5419288 -2.516573 -2.0581982 -4.860095 -2.4803188 2.6441367 1.1235646 -3.4819016 -1.0129622
apple 1.5554667 2.4257896 -1.0442731 0.5518657 2.3947167 2.035921 3.620537 1.5444412 -0.19588423 -0.4165117
back 1.0132837 0.28997394 -0.8355524 -0.25032017 1.0226485 -3.082609 3.8756528 4.2887545 1.205825 1.6779215
km -4.453686 -6.5883613 1.2014841 4.412004 -3.9323378 -1.3877156 -0.35344943 1.7495484 -7.956074 5.3011117
ancient -2.9959583 1.7402989 3.355164 -1.2812521 -2.4453554 2.0000296 2.0847712 0.7827952 -2.567338 -1.7964216
australia -2.393115 2.7158668 3.172358 -0.73576546 -1.4410921 -0.52420837 0.27395996 2.780671 -1.7760164 1.8364111
few -0.07560951 -1.8759049 0.53367764 -0.98802495 -4.4382706 -3.6877036 3.7571886 2.892951 -1.2684928 -1.3738536
support -0.13564263 0.6460311 -2.2867644 -3.175234 0.88854945 0.14823624 0.22475556 3.5507455 -0.73124754 -0.4294161
/ 1.737585 -5.0568385 -0.09691859 3.1294215 -0.6537325 3.7508006 -0.3333446 -0.33292535 -5.4308805 3.110349
water 0.047631647 -3.9717877 -2.4847085 -1.1613005 -2.7688084 0.26426375 -0.8399459 3.7547717 -2.752889 1.299144
members -1.2820058 0.84589744 0.883852 -2.7733953 -1.7495319 -2.9390063 0.47542277 2.50624 -1.5849543 0.5963763
generally 2.804946 -1.78182 0.21475229 -2.999137 -3.579867 1.2997813 1.5055631 2.442893 -1.5930754 -1.0360287
article -4.371516 0.65106237 1.2744315 1.5092859 0.3753223 6.4259152 2.8116136 2.4159713 -2.1715498 2.9625807
father 2.3330598 2.3097825 0.8336068 2.5736043 1.0693855 -1.3937005 5.4613233 0.04895968 -1.4317017 -1.4691187
right 2.4513457 0.28708047 -1.1797407 -1.4691199 -0.39678317 0.052467924 1.5543127 4.4324594 0.3454009 1.6768824
europe -2.6523676 2.3723521 3.0360394 -1.4438022 -3.5272324 -1.6303997 0.41947746 3.3437693 -2.1119156 -0.88498765
original 0.40068305 0.22476971 0.115982264 -0.2578964 -0.7511754 2.1146557 2.7695491 0.7101569 -1.3074956 0.12530845
b 2.2936957 -2.7586162 -0.08487702 3.1033669 -1.4585353 2.6355524 0.5023332 -0.26629627 -4.164915 1.8764704
began -0.57833385 2.0793433 1.981054 -0.8590888 2.3483346 -2.757798 0.9963678 2.2185388 0.37658373 -1.2813891
army -1.8023843 3.8558698 1.778019 -0.54534173 1.6009997 -3.1564887 0.38912016 2.4515426 -1.1116511 -0.21478955
must 5.027065 -4.328129 3.7968469 -4.3461537 0.8414091 -0.9053006 0.2128413 3.4166024 1.2289304 1.6628331
2002 -0.32699618 0.985932 1.139882 3.86375 1.1884571 -0.9368016 -0.10455222 1.4654008 -3.0664651 3.0413146
rather 4.545018 -0.79823256 -4.2550683 -3.785188 -3.655896 -1.2873102 1.843532 1.6423657 -3.488133 -2.7428515
written 3.0535688 1.1554111 2.0990477 1.1415043 -2.7514353 2.6018536 2.8684494 0.24000573 -2.1711755 -0.45162442
school -2.3063588 3.466107 1.2138832 0.6448425 -0.562196 0.19085187 2.5119724 0.50704753 -2.4233785 -1.8761436
player 0.84199965 1.2044582 -1.0406529 0.2017729 2.6930459 -1.0373906 -0.0025936507 -1.7293328 -4.7028384 2.1627748
$ -0.62548083 -2.5287406 -4.7062793 3.0639596 1.4963636 -4.646113 2.9135857 1.8377618 -3.856897 4.2899537
similar 1.7343832 -0.88063884 -0.73016155 -2.2834315 -2.435174 1.7077821 0.9821793 2.5179539 -1.4946707 -1.1376551
australian -2.5699933 2.761984 3.1169777 -2.557184 -0.04416996 0.7943913 -1.6448283 -0.09575704 -4.0055995 1.1114991
best 1.3404506 1.8022753 0.88654506 0.6979796 -0.48558572 1.5270452 3.986719 -2.0500994 -2.5488782 -1.8944464
? 2.6184418 -1.5105312 0.38692588 -0.11742418 2.242298 1.9869164 1.998349 1.2091714 -0.24435198 1.0140569
apollo 1.0780305 -0.20803592 -0.1325456 3.580431 3.4483461 -0.23504312 2.8575952 3.009381 -0.40857112 5.2540197
references -1.2988803 0.55565405 1.3658239 0.43670025 2.6652203 3.7955744 -0.40656075 -1.1873419 -3.4703653 1.1899489
development -1.7851133 1.7278694 -1.044434 -3.20616 -0.380737 1.2752922 0.9508368 2.477456 -1.6811421 -0.29353055
took -1.4343154 0.59100366 2.7126098 0.30571854 2.7256145 -3.7105813 2.9644766 2.3951435 0.9165595 -0.8791017
left 1.5365237 0.6779181 0.55322015 -0.14010485 0.64100593 -1.7073774 2.3876746 2.2644026 0.031040302 1.6632227
battle -2.0249817 4.3088884 1.3401576 2.608239 0.8811833 -2.2265246 1.8586537 3.6764708 -0.90150505 1.0614281
isbn 0.23257416 0.85894954 2.4571264 4.1362557 3.6970153 2.3344736 -0.28925428 -0.8393847 -4.852287 3.3438556
free 1.1847173 0.45282578 -1.1476097 -3.5620928 0.8586744 2.1143868 0.29271048 2.7840736 -0.7997394 1.5657817
islands -4.866592 0.2556249 4.0881987 -0.7806047 -2.2905807 -1.8473657 -1.8418007 0.9420598 -5.1432395 1.3867786
games -0.41415325 0.84677064 -0.9376524 0.027711058 -0.40451637 1.376217 2.8221998 0.020813204 -2.331531 0.19169359
period -1.9517876 1.3374562 1.2914543 1.2795807 -2.3129077 -0.7744748 4.6667113 3.793748 -0.21372822 -0.51080996
systems 0.14979112 -1.5313952 -2.8094242 -3.7350013 -0.9176497 3.062954 -0.6102183 2.0359764 -3.3030784 -0.38703725
america -1.8549368 2.133274 3.695105 -1.7995095 -2.771709 -1.552848 0.2980377 1.6721685 -2.6580915 1.1780139
york -3.5897884 5.2003894 1.83586 3.4672866 2.4404597 2.0074573 3.9559758 1.5216525 -3.8103185 3.544081
actor 1.9235313 2.8788002 0.9974117 2.1669445 4.7281113 -1.6014941 -1.1804159 -2.9154363 -9.377862 -0.073811755
empire -3.5312302 4.6118164 3.1414118 -0.26980698 -0.44885862 -3.7252219 2.6736872 2.4876542 -1.4849459 -1.1415042
information -1.1503748 -0.23662877 -2.9147544 -2.1101677 -0.050947003 4.6651206 0.40569586 2.6661146 -2.936892 1.3169389
led -0.45177057 2.5934393 2.6412897 -1.2191586 1.0515593 -2.0125866 0.7047032 2.4122524 -0.1255778 -0.8255507
england -0.74573153 4.11159 3.2251186 1.1853464 -0.6258291 -1.2326404 1.2198516 2.4205148 -1.2500426 -0.15495516
groups -1.7874073 -1.7410553 -0.3094015 -3.0119865 -3.5937836 -0.12852658 -1.1706303 2.7926667 -3.4850268 -1.5603212
house -1.480337 2.675796 1.6799988 0.8812527 0.71911705 -2.3633804 1.743747 1.1797237 -1.4195011 0.78818107
force -0.8166091 1.3629365 -0.07243194 -3.0403445 1.0215555 -0.71245253 -1.2380046 2.9469075 -1.1993127 1.8779355
1999 -0.5347915 1.1131465 1.5212525 3.771786 0.94075304 -0.42566004 -0.049030967 1.1092798 -3.3792067 2.8744223
body -0.012330294 -0.49506027 -1.2245022 -1.7238142 -1.4226699 -0.1704377 2.4766035 2.8617373 -0.97138774 0.6846825
football -2.5541062 3.4862425 1.3635811 -1.5740443 -0.11162578 0.95974296 -0.044046886 -0.9737232 -5.317524 0.030065523
control -0.66778827 1.1266209 -1.5393313 -2.9880602 0.47543022 -1.3913536 0.08088756 4.060801 -0.50272995 0.009138468
million -1.933743 -4.52417 -2.0665674 3.0447974 -0.6320963 -5.8785453 1.2832022 2.4891737 -3.3282588 3.2951806
near -3.2766078 0.19780184 4.1007667 0.24108663 -0.06929958 -2.6053166 1.424359 1.0205493 -1.4634435 1.8655028
having -0.77129185 -1.3342466 -1.9171193 -0.37954897 2.1755652 -0.8781372 3.8124828 2.1424775 0.576756 -4.741369
never 4.2722487 0.77261233 0.77884555 -0.54663587 0.37904817 -0.14546022 4.7412605 3.707115 1.3869748 -0.9841989
official -2.1991057 3.5962715 2.0280488 -1.8877032 1.8406814 3.6786683 0.8533843 0.4591703 -2.6852984 1.2443749
court 0.074861646 3.4675746 3.144779 -0.6408208 0.8236088 -0.090811335 0.38452044 4.9143476 1.2278708 0.3814287
region -3.7621775 0.15888254 2.8320792 -0.75581264 -3.7634518 -0.7542797 0.9847309 2.579477 -2.388877 0.80214083
works 0.18378264 1.2475524 0.17456202 0.24659821 -1.450903 0.76628333 3.0667179 0.3014579 -2.1275685 -1.610193
late -0.4936731 2.9343498 4.3506246 1.1976349 -1.4372989 -3.78443 3.071145 1.1523534 -1.4556553 -1.1689681
little 2.0606363 0.10669808 -0.6516418 -0.4369451 -1.4398702 -0.9794953 2.9500017 1.0569676 -1.1264882 -1.0524193
river -4.196568 0.33798134 2.7332273 0.19792597 -2.0758586 -2.2123032 1.0396131 2.1328151 -2.476556 1.9257407
along -3.034095 -0.52664536 0.64268386 -1.3669263 -0.989236 -2.9949174 0.5870927 1.7134795 -2.033024 0.43545645
x 3.9126844 -4.093685 -0.64058626 2.8285239 -1.4551111 4.1265163 1.0329903 1.2567688 -4.3838286 2.974605
books -0.5478032 0.44149163 1.1394846 1.172899 -1.1340246 1.1899978 2.675775 0.33514512 -1.7164062 -0.18138984
every 1.6645432 -0.72917646 -0.21299712 -0.15972725 -1.5640025 0.3864739 4.2323503 3.1432204 0.31567878 1.7453014
former -1.2508318 3.3108418 2.9565713 -1.0506904 0.9684476 -1.5373363 -0.26327786 0.008915617 -2.6412299 -0.5677351
european -3.1738303 2.2349398 2.6131897 -3.2253141 -1.2185419 -1.7108706 -0.7247739 2.4252458 -1.996051 -0.8333809
down 1.3596109 -0.50467175 -0.38556832 -0.121815845 1.3550603 -2.5504208 3.010271 3.5384278 0.9049649 1.3102257
africa -3.48702 1.2013664 4.111318 -1.0919232 -3.6926374 -1.4513435 -0.8647617 2.4760036 -4.023682 0.75486547
fact 1.5130064 -0.0074025537 1.3297544 -1.4899768 -2.7294688 1.462301 2.6849945 3.909608 0.057519183 -0.1862293
science -0.74843806 2.2840679 -0.8020262 -1.4168905 -0.3005189 4.255328 1.539933 -0.48768336 -3.7512913 -1.5502626
himself 4.7417607 2.670466 0.9096897 1.045318 0.8688753 -1.2522941 2.3929584 3.204673 0.56973284 -2.7286448
version 0.025375681 -0.0003706186 0.9165077 2.9287176 -0.1829326 2.8681903 3.4076297 0.05467423 -1.678909 0.12336521
germany -2.3187425 3.6606786 3.3327873 -0.005319688 -0.31348303 -3.0207376 -0.3869209 2.506495 -2.0076852 -0.10207795
0 1.2095639 -3.1260202 1.1071047 4.019163 -0.96000135 1.1125166 1.1855521 2.5138583 -5.1096654 5.745932
act -0.302198 1.2010708 1.670088 -1.0001572 1.1308583 -0.7156695 -0.45551905 2.1018527 -0.27841896 0.8163022
upon 0.76726997 -0.81622124 0.72906315 -2.9476032 2.920323 -1.3853105 3.5038881 1.9367719 1.1416395 0.4451488
service -1.4331824 1.2643507 -1.0036498 -1.1921163 0.97902566 0.5098199 -0.21692954 2.195622 -1.7007678 1.6055312
how 3.3760517 -1.4576482 -1.9320582 -3.230035 0.56128544 2.887102 3.5674033 3.3619025 0.37370184 0.7841781
languages -2.5886345 -1.7866246 1.602843 -1.6813929 -5.0193233 2.4547205 -1.5724354 1.2192906 -5.6605506 -0.64514226
7 1.0135108 -1.4568757 1.1476231 4.353059 0.6261098 -1.8210132 0.98490447 2.956163 -2.8247566 4.347558
+ 4.2272744 -6.229298 -0.94059956 3.8081112 -0.48059782 4.106468 -0.24340439 0.9286136 -6.634482 3.485898
april -0.38794595 1.4978844 3.0770292 5.1572976 1.9457735 -2.8900108 2.2296808 2.7189898 -2.3575747 4.9402366
just 1.6238546 -1.2045395 1.1826816 -0.25577778 -1.7783264 -0.44928345 2.7409637 2.712706 0.018251114 0.84066343
rights -0.8824638 2.3708534 -0.6650325 -4.487465 1.4550408 2.1100814 -0.70563984 3.2592897 -1.1290752 0.34984523
certain 1.9730526 -1.4322184 -1.0529025 -3.1098354 -3.3548331 0.9927759 0.60535765 4.282249 -1.132381 -1.3406842
published 1.4464704 2.678599 2.6290317 2.2909007 0.1990235 0.6540747 2.6227555 -1.0926687 -2.1860642 0.23146261
either 2.4004693 -2.175155 -1.7035226 -1.949231 -1.8901671 -0.6389971 1.29762 2.8166661 -1.533295 -0.0798923
central -3.1931942 1.1125854 3.5945218 -2.2071893 -2.2769525 -0.05840923 0.19301403 1.520384 -2.7904582 0.52069885
means 1.0415765 -2.4708526 0.5812308 -0.70917517 -1.056396 2.4893658 0.9444267 2.640093 -0.84430563 -1.3975756
born 2.6980312 3.6445675 2.7398171 3.881363 1.2456733 -2.303601 2.6355429 -1.1613303 -3.183405 1.5643808
home -1.7877148 2.0518618 0.32809567 0.054874666 0.5058014 -0.29327288 2.8771582 1.5212327 -1.0352876 0.63258314
good 3.0731773 -0.5598578 -1.400743 -1.5745523 -0.48289865 2.3172417 2.3207765 1.712172 -0.8399468 -0.42059535
kingdom -2.642901 2.0682225 6.6044006 -1.1054064 -1.8259743 0.8218244 -1.967435 4.516282 -0.9578594 4.5039115
f 3.1794944 -3.2877347 0.42400748 3.270872 -1.6512115 3.0424874 1.1928526 0.3543723 -4.5316653 2.3935173
developed 0.97696114 1.2636149 1.1006414 -2.2247188 -2.3541813 0.77814895 0.9169702 1.3228565 -1.9576526 -1.7775731
further 0.8887822 0.39973035 -0.21633273 -2.7077103 0.49994174 0.5022173 2.0821145 1.8655392 -0.42731196 1.4654992
france -0.8764161 3.28192 3.5823967 1.3891728 0.13137896 -2.4663439 -0.84357786 1.4641122 -2.5485218 0.19216216
held 0.9163709 1.4935021 3.0473092 -0.91731787 -0.9810077 -2.4206066 2.3149083 1.8092377 -0.32903352 1.3268845
v 2.250901 -0.76095265 1.1534222 3.7304587 0.84235674 1.0611038 0.5198085 -0.76816714 -3.3535159 2.5980027
possible 2.8648763 -1.5851246 0.06702515 -2.1661808 -2.1774817 2.1942725 2.3718238 3.6807778 -0.39379352 0.26970002
earth 0.23926173 -0.42728448 -1.4347068 0.91737574 -1.1955606 0.115461595 2.3395705 3.722476 -0.649321 2.2883966
forces -1.4882021 3.0936751 0.9651602 -3.0955827 1.9122747 -2.8954868 -1.7239033 3.9621902 -0.9363732 0.7691599
natural -0.8852761 -2.097793 -0.98163754 -3.2911327 -1.0841293 2.954836 0.62414676 1.2068464 -2.5327146 0.74781865
famous -0.31786343 2.1847281 1.4669896 -0.4458832 -0.7372681 0.41888598 2.9882398 -1.6701356 -3.171895 -1.8915074
company -0.60409987 2.0221052 0.48615742 0.27659553 1.4693857 -0.60401225 1.2410502 0.6457058 -1.2094777 -0.4209646
field 0.11322184 -0.59282285 -0.7160682 -0.67468673 -1.2935964 1.9148407 1.9384987 1.4594988 -1.7485399 1.4003981
take 0.03262344 -1.0200557 -2.4550364 -1.1522684 1.6986297 -0.5067426 3.3971553 4.862164 1.2137368 -0.11928662
largest -3.7790859 0.45266595 2.7923942 -1.4633961 -2.492136 0.62275064 2.4800758 0.44659922 -3.016694 2.1224418
especially -0.23156881 -0.07358107 0.79139525 -2.1231701 -2.6963587 -1.2043887 -0.7012721 1.9007834 -2.2787054 -1.9407916
result 1.1970772 -0.86085266 -0.9751995 -1.2629647 -2.6399453 0.7448533 3.0421033 2.0672274 -1.3393213 -0.6841247
current -1.5708711 0.5027291 -0.2802007 -2.94987 0.06110554 1.3521616 0.96757776 1.5866923 -1.4746529 1.2673415
jewish -1.1789435 2.327163 1.7954262 -2.52629 -1.3223834 -0.20382729 0.8300949 1.8371713 -1.4462842 -1.2092055
agave -0.7910885 -1.2111173 2.5588844 3.025751 0.1563637 0.6964834 0.685687 -1.3299131 -6.9299297 -1.4430639
today -0.49786386 -0.29197234 2.3010979 -1.8479811 -2.8072875 1.3534876 1.9477719 2.4998412 -0.8552559 -0.40475902
social 0.20033197 1.7172067 -1.3936388 -5.1116276 0.064817846 1.2795883 -0.38708964 0.84773505 -3.186785 -2.6378996
15 -0.5644785 -2.0525813 -0.13403243 4.127567 -0.6879941 -2.8318555 2.335454 2.6207275 -2.7834182 4.088156
jews 0.6504812 1.5655704 0.9953316 -1.992612 -2.190036 -1.7285736 0.70547634 3.8626218 -0.5215193 -0.81685317
died 2.4730606 1.9230391 2.8118162 4.6436367 1.138219 -4.1710477 2.1046607 2.2158256 -1.2007966 -0.5260089
above 0.31316206 -4.2137423 0.16781615 0.40532342 -2.5070183 1.4686745 2.4779384 1.9132692 -1.393424 1.9115062
! 1.273407 -1.4014627 -0.053578407 0.61942744 2.939831 1.5283647 1.2965764 0.66253424 -0.8526245 1.4896784
n 2.9454615 -4.5106773 -0.9005155 3.318439 -2.793815 3.8129358 0.75989324 1.3021418 -4.7064676 3.222787
image -1.7156578 -0.16740474 -0.40595093 1.6815721 0.90146726 3.6123593 0.9870537 1.0535554 -2.936226 2.263787
species -0.85909444 -3.8421016 -0.78975683 -0.7498983 -4.4299765 1.7089481 -0.13768087 2.1223485 -3.715734 -0.43263754
black -1.3475136 -0.34389457 0.8789092 -0.045029007 -1.451766 -0.9729032 0.40676165 -0.16434442 -3.031023 0.270778
society -1.0503001 2.658409 -0.34525126 -1.4569772 -0.33706212 1.7052437 0.6143332 1.5995786 -2.069241 -1.06188
site -3.1197882 2.51197 -0.14826243 -0.40734065 1.3581916 3.8553438 1.5949161 1.7005627 -2.3793766 1.067285
once 1.8105534 -0.13272692 0.45007783 0.23942064 -0.33448473 -1.5171096 4.246453 2.372169 0.4572539 -0.75212646
league -3.597711 4.1716356 1.7806553 0.15325056 0.8554427 -1.4220612 0.489172 0.046050254 -3.896507 0.5441508
came 0.011358711 1.1094624 2.496973 0.29230106 0.5971262 -1.8738558 1.3019717 3.7291074 0.9710129 -0.5901786
white 0.49606746 -0.29659313 0.24433918 0.02542734 -1.4178631 -1.3746687 -0.29700395 -0.056875404 -3.136556 -0.1810002
economic -2.018627 1.9626424 -1.5191424 -4.4410315 0.71679217 -0.4294118 0.63404226 2.9561577 -1.5283484 -1.1086055
christian -0.47574505 2.2951856 1.9932472 -1.2932504 -1.1088142 1.1983219 1.4956024 0.41031632 -1.8696808 -1.7483662
view -0.5399053 -0.5388163 0.94175684 -1.492255 -1.6006447 2.2812572 2.9983156 2.5523386 -0.5002815 0.22617254
1998 -0.4303553 1.138629 1.0331881 3.6443782 0.83420223 -0.8533539 -0.30745015 1.169068 -3.4326112 2.7975736
short 0.7337328 0.14513656 0.21928029 0.8233927 -1.2044843 0.530462 3.6089027 0.20060225 -1.7133458 -0.5818592
men 1.6200199 0.00087074767 -1.2945839 0.025260156 -1.1039507 -3.0871449 1.9864813 2.586888 -1.0924861 -0.74226403
program 0.1332417 0.11253294 -1.231905 -0.32158875 1.1485701 1.9026712 1.7683098 2.1603448 -0.7481678 1.5520159
numbers 0.51003295 -3.1879292 -1.1342974 0.24949396 -3.26942 1.6889954 0.8392525 3.0982594 -2.1121235 1.3912187
thought 3.502057 -0.026582211 1.488089 -2.9128711 -2.033203 1.0967814 2.1860247 1.6493982 -0.7822545 0.29200828
side -1.3229303 -1.2721239 -0.83307254 -1.2375717 -1.7957164 -1.281187 1.8806263 3.1641762 -1.2786098 2.3243263
local -0.6188356 1.5813869 0.21022359 -3.0152233 -1.074254 -0.555284 -0.49932596 1.9353178 -1.9886537 -0.9705531
itself 1.5880109 0.6324658 0.62044024 -1.074394 -2.0062675 1.935458 1.8374763 3.272953 -0.22657448 -0.514218
almost 0.3929231 -1.5647264 0.21337819 -1.1074921 -2.3327043 -1.1390432 3.2069952 3.0243182 -0.39469787 0.43858004
religious -0.31269988 1.3371185 -0.047834817 -4.4346647 -1.2224032 0.68697715 0.8395202 1.381953 -2.1840887 -2.558438
team -0.35675284 1.9510261 0.61826175 0.39055318 0.43965244 -1.3673278 2.4135423 0.94033825 -1.188656 0.6206457
civil -3.5647562 4.4267106 1.7422061 -2.5599215 3.9014242 0.8625606 0.64359576 1.9729913 -1.7798904 0.5036934
single 1.3858051 -1.4149525 -0.58089733 -0.3800497 -1.4047536 1.2029454 2.5529032 1.8994006 -1.0071326 0.3688985
march 0.7626501 1.421407 2.8036606 5.072023 2.1185572 -4.3134437 0.71006763 2.4434943 -1.9876556 3.8381526
far 2.4380095 -0.75383633 1.1382881 -1.2749853 -4.1948967 -2.0654309 1.85319 2.776672 -1.1314749 -0.5860015
taken 2.9787512 1.5654485 1.5072745 -1.4050262 -2.2177625 -1.177481 2.1378837 3.0525665 -0.46062452 2.0110302
8 1.3876109 -2.157432 0.23412809 4.6439962 0.4160351 -1.7811478 1.1964244 2.6143224 -2.3725138 4.300079
living -0.28270754 -0.7466441 -0.98787427 -1.330433 -1.0111475 -2.882673 -0.6101352 1.0679317 -2.3401332 0.18774499
august 0.45406008 1.0371677 3.3505497 5.63805 1.6782149 -3.3600886 1.5964453 2.4870715 -2.376844 3.9578207
process 0.85325164 -0.6147426 -0.73278385 -1.8432603 -1.406058 1.8005531 2.395135 2.8799512 -0.7421309 -0.50649035
space -0.3113653 -0.20649523 -0.63443696 -0.06517943 0.8152311 1.1318004 0.4928619 1.1544806 -1.5842934 2.359816
range -1.4583721 -3.512031 -3.1183748 -0.41223076 -2.8439138 -0.050431803 0.58372074 3.040149 -2.807354 0.63539875
standard 0.7683194 -1.2951581 -0.114204384 -0.6642625 -2.2029967 3.031239 0.9699258 0.20426859 -2.9313345 0.42197967
culture -2.064888 2.0737374 0.36360842 -2.3445985 -1.6182733 2.3628888 1.338683 0.5653769 -3.422117 -1.9893116
children 0.7882686 0.2137483 -0.8999916 0.500093 -1.2197818 -3.0090744 2.1566937 1.6054639 -1.6720787 0.19067004
play 0.6353211 0.27078578 -0.5838034 0.9187657 0.16779183 0.83620363 3.0217986 2.4536602 -0.25736666 -0.2582915
character 1.4078007 0.24975353 -0.8117872 0.49997464 -1.0836141 1.9415835 2.9128392 0.46326095 -1.9014369 -0.29371274
off 0.3266832 -0.69120085 -0.37868634 -0.88693357 0.62377685 -3.0433395 2.2869825 2.7536852 0.09661596 1.5250379
january 0.9186185 0.9369551 3.285277 5.762052 1.9693402 -4.033985 0.9177547 1.8520185 -2.6479023 4.337085
total -2.1191964 -2.8909087 -1.0444264 1.0686628 -1.5556178 -1.1461229 1.8869537 2.7111564 -2.8127546 3.8293607
movement -1.1497582 2.5200653 0.7056322 -2.0852425 -0.11848227 0.65459794 0.8929542 1.6980873 -1.3784345 -0.56700695
terms 0.4334724 -0.92882586 -0.6246487 -2.028312 -2.2578983 0.85267997 0.5565838 3.0592418 -1.5022225 -0.7604022
days -1.1918039 -0.71559334 -0.10767636 3.232383 -1.9903072 -3.2046006 3.8574693 2.9846766 -1.4949362 1.9055997
production -0.92041343 -0.6117216 -1.8032379 -1.2458684 -1.0465645 0.7492626 0.4068617 1.7566023 -2.3621943 -0.30667475
position 0.28966194 0.17096387 0.015537057 -0.7982861 -1.0386747 -0.6025563 3.0842555 2.92999 -0.05427141 0.064649135
southern -4.0335345 0.6743747 3.93773 -0.8808331 -2.6821074 -2.08299 -0.7062024 2.2941332 -2.9890008 0.2441388
12 0.6508758 -1.1231194 0.40015602 3.853686 -0.13754608 -2.4944804 1.0953848 2.4506998 -2.6832266 4.2286267
open -0.73530555 -0.24117403 0.1792096 -0.47649562 0.831397 1.3770121 1.7299973 1.3320422 -0.9094566 1.377431
s 2.4619985 -3.635949 -0.6909139 3.0068865 -2.1026871 2.4430168 1.0619308 0.29698777 -4.1710496 2.2347028
words 1.2636265 -1.7024455 0.066309944 -1.1152432 -3.118248 2.0542715 1.667086 1.3879191 -2.2270977 0.07958141
seen 3.596413 0.046849664 1.0762028 -1.9776559 -3.3858953 0.556772 2.053454 1.8308103 -1.638389 -0.112765886
software 0.9839818 -0.15607274 -2.2420638 -2.4497857 0.6344923 4.006333 0.6253625 1.9466165 -2.0618484 -0.4201782
areas -2.7727706 -1.0269787 0.7560293 -2.736941 -3.5473652 -1.3339288 -0.19838245 3.2721643 -2.5667858 -0.6639046
capital -2.674964 2.069051 2.3623073 -0.7211864 -0.68774015 -0.89540267 1.3927131 0.9822836 -2.3778758 0.800027
writer 1.3168612 1.8766013 0.9446358 1.8313978 1.8283904 -0.17523997 -0.5955518 -2.375936 -6.685953 -0.65920645
show 0.3203381 0.18233745 -0.80849236 0.19346155 0.89056724 0.18250886 2.3615777 1.4228216 -0.6541229 0.29547524
head -0.50787795 2.1363597 0.88175225 0.65556407 0.283266 -1.006468 1.921029 0.94601065 -1.5200604 0.39518338
northern -4.318435 1.6392342 4.2159634 -0.8023773 -1.917375 -2.6384375 -0.37971133 1.715152 -3.3357189 0.52796173
minister 0.14445914 6.5513215 3.094254 0.87623 1.4386989 -2.8634238 -1.827153 0.93715644 -4.087699 0.10411773
again 2.2876453 0.915792 1.8282244 0.76052415 0.7511629 -2.881843 3.4437273 3.1417046 0.99695456 1.065934
william 1.7176682 3.0772474 2.3852484 2.8801467 2.9029298 -0.100032195 -0.46689835 -1.4666317 -4.4039454 0.17709634
next -0.0003156514 -0.073980495 0.8058176 1.1405472 0.3451232 -1.432344 5.0275235 2.562737 0.4192509 1.5088712
research -1.0144199 1.8545625 -1.2053564 -1.9398247 0.20615385 2.7632542 0.95253646 1.6050222 -2.1468213 -0.08024749
created 1.6617864 1.7013518 1.7200155 -1.3848126 -0.55171907 0.55677944 1.5630008 0.91945344 -1.0449332 -0.30674058
russian -0.59482205 3.0316389 2.326417 -0.3142913 0.92495376 -0.56588465 -1.5815088 -0.26573715 -3.4685879 0.45763412
town -2.643835 2.2253592 2.991092 0.73155874 -2.7739372 -0.30243927 2.303754 1.3439983 -2.3332605 0.05685786
person 2.1138384 -0.7143014 -1.1207594 -0.60341656 -1.3892865 1.055305 3.505839 3.091496 -0.34660262 -0.9792525
latin -0.6598192 0.96664125 2.39037 1.007596 -3.3525088 3.4250808 0.4947494 0.80965483 -3.2563288 -1.2774299
september 0.3151162 0.94694316 2.905864 5.2142124 2.2856047 -3.970935 0.37234166 3.0177393 -2.0579288 4.4077306
built 0.4455677 1.7093801 1.8557358 0.26788223 -1.2456414 -0.85323715 1.8300861 0.46040264 -1.7384007 0.96546155
atari 0.39800176 2.4746158 -0.029664285 1.0449979 2.3988726 2.4595716 2.898787 1.5815167 -0.71907145 -0.14578378
20 0.005363373 -2.6724668 -0.9610954 3.8015535 -0.63982254 -2.7104576 1.4329653 2.536293 -2.7788682 3.7591593
data 0.4959681 -2.8457563 -3.2320712 -1.295545 -1.181786 3.481227 -0.21375693 3.0668383 -2.6963272 1.0773548
red -1.0118597 0.12534362 -0.1166928 -0.18616524 -0.91002905 -0.9707241 0.0013258202 0.21371081 -2.9969966 0.82539475
produced 1.7238431 -0.7519872 0.24698257 -0.64482945 -1.9982541 -0.15783948 1.2613378 0.8432593 -1.9820778 -0.12668556
ball 2.708361 -1.4080498 -1.8989655 0.029687665 -0.46151647 -0.13912125 3.263303 4.099673 0.030269483 2.6286337
n't 7.560022 -2.0787683 -2.5229132 -1.3378699 1.6337459 2.7024064 4.9600906 2.4622831 -0.58903444 3.1440542
r 2.057453 -2.000392 -0.12001837 2.5581713 -0.028039763 2.4870179 -0.21539797 -0.41103297 -4.1792083 2.345602
parts -3.049591 -1.0466473 1.1412444 -2.0536933 -2.8567586 -1.2450266 1.0795585 3.01029 -1.9251556 0.25100037
third -0.47297406 1.7480497 1.5543836 0.3358985 -0.30153677 0.16821283 3.1807604 1.4997021 -0.7863577 0.44957715
1996 -0.022897294 1.7913346 1.473629 3.4077303 1.1938733 -1.1134914 -0.45901257 1.04754 -3.08253 1.9876771
middle -3.2467756 0.56905353 3.151322 -0.8900065 -3.3785825 -2.3758242 1.990441 2.4997997 -1.798558 0.38068306
women 0.5303658 1.3524594 -0.5240676 -0.65196925 -0.6318307 -2.6632593 0.55226547 1.8630308 -1.4863024 -1.0117624
released 2.9831567 1.4145108 0.957699 1.6962867 0.5443635 -0.2607107 3.532498 -0.09822924 -1.2383369 2.3794029
study -1.1245356 0.57891685 -0.8752322 -1.535038 -0.83288705 2.5228536 2.1277077 1.3676722 -1.7206664 -0.5802255
e 1.9269804 -1.3357888 -0.10181519 2.8983681 0.38960242 1.6800535 0.030420788 -0.9189374 -4.196558 2.002815
television -0.029685082 2.1949668 -1.2455767 0.14312522 2.5460763 1.1976165 0.39619544 -0.7995277 -3.555668 0.8270112
republic -4.458698 3.3245976 4.323772 0.16600333 -0.6482651 -1.9872125 -0.7490221 1.338292 -3.6524277 0.6262045
present 0.54231894 0.4450644 0.7988556 -0.64203465 -1.4531904 0.9728864 2.4182582 1.8147287 -0.80980355 1.1202835
our 1.7440957 0.74721193 -1.20779 -2.6482916 0.6367793 1.4602537 2.4318414 4.161815 0.6692307 0.8044149
least 0.62318295 -0.0746505 -0.8772214 1.5136846 -5.2833767 -1.9952606 2.7310445 6.1492467 -1.138572 0.400136
nature 1.0505711 0.08892215 -0.89380264 -2.6573002 -1.6494678 1.8665841 1.9704009 3.1888452 -0.7726436 -0.090848826
forms -0.9238422 -2.351852 -0.45857668 -2.1200259 -2.7957363 1.6542308 0.31384492 2.4493568 -2.5041134 -0.96742195
economy -2.7801223 1.7001826 0.3364875 -1.7170377 -0.828886 0.6213942 1.3581798 3.3448737 -1.3649846 0.30278388
11 0.10030346 -0.13210715 2.0385058 3.7362578 1.1439953 -3.1206646 0.16603267 3.0366294 -2.229567 4.745056
council -2.8423421 3.6621225 2.1875205 -0.8557847 -0.33738536 -1.342091 0.2463905 3.2168813 -1.457384 -0.08331899
july 0.3350631 0.6999105 2.8546448 5.42803 1.6759492 -4.2666936 0.7961298 2.227299 -2.3589678 4.2346854
story 0.32825714 1.0484993 0.6426662 1.9801267 0.19596785 1.2812216 4.116783 0.3791182 -1.0160964 -0.25801232
soviet -3.0823462 4.0309196 2.2230163 -2.3744822 2.0449846 -2.0063238 -1.1194897 3.1092837 -1.5313901 0.16195646
eastern -4.2887263 1.4862757 4.2941127 -1.8181698 -2.998491 -1.4545529 -0.102403104 2.4041374 -3.1956797 -0.568936
1997 0.18771334 1.4459842 1.0882388 3.4662933 1.4805651 -1.1666849 -0.008635865 0.8455062 -3.1980093 2.3054585
9 1.3215619 -1.222691 0.86133766 4.601478 0.56981975 -1.6454055 0.84927547 2.8781757 -2.6644323 4.5854397
center -3.1036243 1.9782026 0.7180363 -0.6324522 0.35219744 1.034873 1.1922439 1.0663161 -2.2982183 1.5491468
might 5.096336 -3.7395813 3.4488218 -3.9114351 0.55685383 -0.2750324 -0.0924832 2.5913794 0.41411456 0.12549531
african -2.6143248 1.2276943 2.083468 -3.2262006 -2.22344 -0.94686246 -2.0782907 0.39300188 -4.6809187 -1.3178439
light 1.0805887 -2.0552151 -2.3622103 -0.8128826 -1.1286217 -0.22875747 0.9856216 2.2294233 -1.7663875 -0.043055378
full 0.91409963 0.3754504 -0.30839422 -1.1537168 -0.079353236 0.72442573 2.051192 1.735805 -0.52477354 0.66057926
israel -0.32073647 3.1683264 1.385076 -1.7909828 -0.2240133 -1.2096446 0.43007502 3.969894 -0.15654089 0.92967474
design 1.1086825 0.21587166 -1.3452734 -2.6005847 -0.29583144 2.4628484 1.7658042 1.2694571 -1.6875906 -1.2657064
d 1.4621046 0.004903091 0.5595286 2.822519 1.206049 1.7820394 -0.42493737 -0.5123026 -3.8793616 2.339324
available 1.1722621 -0.4118502 -1.0651819 -1.6455195 -2.4835126 2.680241 0.6053929 1.7802052 -2.5487535 0.81189245
philosophy -0.779036 2.309357 0.33445233 -1.4448489 -0.24491318 3.01246 2.7385707 0.5227119 -1.8481544 -0.860317
whose 2.6150463 2.2808375 0.8631114 -2.783718 -0.11610612 -0.2754115 2.136862 -0.36046192 -1.4575324 -1.0966616
emperor 0.10121697 4.204209 2.4601028 3.213045 1.157111 -2.5306847 2.6923172 0.29226977 -2.1581113 -1.0004538
strong 2.2213817 0.16354504 0.23124799 -2.875833 -1.5143509 0.95458245 0.6349881 1.9319646 -1.3212079 -1.3943882
london -1.3649021 3.2007933 2.1890721 2.3997111 1.0591657 -0.5407217 1.2158134 0.2828886 -2.7789085 1.5319707
meaning 1.3232366 -1.6958156 1.0354558 -0.3926336 -2.5282462 3.3735805 1.7365487 1.1535648 -1.9235317 0.5803391
cities -4.0059032 0.8055194 2.3585975 -1.0195788 -2.975829 -1.1023345 -0.18710102 1.9001756 -3.6978462 0.27165776
george 1.5103846 3.3621767 2.8876464 2.529675 3.9184039 -0.3147367 -0.8476726 -1.3800551 -4.2230215 0.13291222
foreign -2.5700583 2.5099661 0.24409011 -4.011309 1.159266 -1.0762278 -0.72438014 1.7389125 -2.2451093 -0.88534564
established -0.29401168 3.2316916 3.541448 -1.8829811 -0.7456539 -0.458812 1.1808472 0.32343537 -1.7488416 0.2592631
together 1.2830528 -1.060567 -0.38380995 -0.81825536 -0.38864934 -2.0598202 0.1984251 2.379234 -0.77950156 -0.6613207
role -0.09122617 1.5047765 0.2414487 -1.3348534 -0.98842114 0.7385768 2.6425397 1.1795943 -1.3856133 -2.037076
press -2.2943127 2.14573 3.0115411 2.263538 2.9903615 1.6680837 2.0155356 -0.14063667 -3.198893 3.0223484
wrote 0.6054474 0.94112957 2.5436673 3.140997 2.4027927 0.4949063 3.056167 0.16996773 -0.6633267 -2.166261
berlin -1.7475195 2.4967456 2.4162984 0.11440441 -0.4814999 -0.91895497 0.7509736 1.4945092 -1.9202758 1.5231917
come 2.9363399 0.6829409 -0.90449697 -0.31871045 -1.6390206 0.5517781 1.2580543 6.0975156 0.43234643 1.7302802
territory -3.2544236 1.6979129 2.1803741 -1.0935154 -1.7043169 -1.8919612 0.29317117 2.519971 -2.1379316 0.9001433
below 0.44690174 -3.4937294 0.4632341 -0.52398574 -2.049292 1.7064368 2.4696996 0.0859737 -2.5323784 3.4985971
particular 0.8953193 -0.51781154 0.067384996 -2.4757552 -1.6241142 2.1037664 1.5029664 2.1371672 -1.1702288 0.3051315
iii 1.9906107 2.6382446 2.1161187 3.2726872 2.740013 -0.8294484 1.3973751 -0.6447445 -2.9710495 0.20706049
included -0.15912805 -0.79919297 2.1339726 -0.43273896 -0.76522315 0.50732094 0.28397977 0.6313293 -1.525998 -0.4267347
won -0.11276951 1.9080178 3.9642243 1.5035577 0.9831101 -2.9813635 2.2840197 0.4352421 -0.96507275 0.7366826
robert 2.4001687 2.8027074 1.7733378 3.1764846 3.029537 -0.06472511 -1.1543517 -1.635279 -4.848838 -0.32821795
animals 1.6182995 -1.6003746 -0.93092763 -2.6769712 -2.1126878 -0.03184024 -0.6666694 2.9104493 -1.8091264 -0.1623496
deaths -3.531666 3.3836706 0.9212421 1.985132 4.2175846 -1.5941181 -1.4423144 -1.125325 -5.762693 1.1335176
18 0.16102868 -1.0170051 0.30010146 4.0016646 -0.33923194 -3.3892603 1.4478298 2.9442418 -2.5601587 3.2145693
arabic -0.28654224 -0.4892117 2.3201842 -0.43920672 -3.3638408 4.692576 0.2942059 1.0556288 -3.2386627 -0.37787506
lost 0.4590473 0.25258923 1.9063969 0.38483807 -0.027168086 -1.8943686 2.6602213 1.4225847 -0.4255821 1.5249016
making 0.42163688 -1.907773 -0.5159368 -1.6438005 0.46079582 -0.55042696 2.171603 1.7272538 -0.24009623 -0.8595756
themselves 2.9757242 -0.7231518 -0.66288835 -2.9159706 -2.477684 -1.135466 -0.7476285 3.959272 -1.1468809 -2.1315992
november 0.64954555 0.7778093 2.8698494 5.4406114 2.1986032 -4.4271603 0.5947413 2.1854718 -2.0892007 4.021409
16 1.0852551 -1.5760045 0.31870785 4.125175 0.55896133 -1.6369247 0.8749674 2.6138408 -2.092526 4.1499457
lincoln 0.852309 3.5797763 1.6480745 2.08617 2.014133 -0.5479393 2.2555032 0.4887078 -1.1831021 -0.77848804
brazil -2.972882 1.2292159 1.6449467 -0.73883104 -1.8408383 0.69325924 -0.47325966 1.3982538 -3.6768649 1.024138
album 1.0982546 0.7165599 0.3626374 2.5246115 0.7375336 0.12598126 4.6590943 0.4907338 -0.8215546 0.5740969
type -0.32268113 -2.772472 -0.5904367 -0.91181546 -1.8663278 2.8909626 2.0829883 1.6959912 -1.9098284 0.5774453
india -3.0735865 2.5493443 3.086939 -0.31016347 -1.0216677 -1.4768258 -0.3933484 2.1411793 -2.6699886 0.40516165
1995 0.3835637 1.4537971 1.573344 3.450456 1.4019023 -0.6222241 -0.048983004 0.69305944 -3.44533 2.9897006
1994 -0.2829088 2.0351079 1.7178518 3.1715097 1.2313114 -1.1705422 0.27707565 1.196209 -2.528735 2.1720068
instead 1.8445094 -0.8857516 -0.7000593 -0.9411614 -0.53436387 0.066434786 1.8231546 2.5669396 -0.35494107 -0.024524389
believe 1.0101001 -2.9918425 1.6869442 -2.2448027 0.69771874 1.7159582 2.2945435 3.8186636 0.6443748 -1.346267
james 2.0065024 2.5105832 2.040068 2.900515 2.6270676 -0.058221128 -0.2991156 -1.2030456 -3.8554356 0.3596312
throughout -2.780526 0.62311006 2.447589 -3.8259294 -0.3952913 -2.0703964 3.0343492 1.1218034 -0.9964076 -1.0106734
title 0.8150392 1.9361175 1.2200769 1.631421 -0.0049245106 0.81723386 3.5367384 0.9210961 -0.9235687 -0.27260074
level -1.8019586 -2.468967 -1.8043716 -0.8826818 -1.7843158 -0.12915821 1.7172028 3.4783883 -1.2745155 1.2130507
member -1.840547 2.4042375 3.4790204 -1.1074313 -0.5148027 -0.18920912 1.5861981 -0.46033382 -2.486523 -0.010981318
particularly 0.47941184 0.34231108 0.6330847 -2.434568 -2.3292906 0.218682 0.43808982 1.4237381 -1.9302139 -1.8784089
w 1.4292952 0.45268464 0.24686328 2.8044167 1.0364631 1.0050665 -0.8546155 -0.7833013 -4.2116275 1.4607784
young 2.3572912 1.1798078 0.32048172 1.1874495 0.97977984 -2.8185158 2.3288229 -0.18467931 -1.4758676 -1.9465668
addition -0.31828657 -0.6747522 -0.89440876 -0.49115872 -2.3814983 1.5652963 0.1213947 2.5976381 -2.020627 -0.37518266
evidence 1.0770142 -0.28497055 -0.11342887 -1.7703505 -1.68841 3.054223 2.465058 4.2128954 -0.15828635 -1.4165505
actress 0.9246943 2.0846865 0.9060229 2.5268774 4.1420217 -1.246353 -1.8629435 -1.7097408 -8.215844 0.6168927
p 3.0017562 -2.0914552 0.1995271 2.6357374 -0.47603714 3.4298491 0.1723666 0.58529234 -3.3286386 2.8566241
december 1.3437532 1.3923811 3.4653656 5.655495 1.5615033 -3.5797467 0.6975712 1.9067724 -2.6508236 3.830055
italian -0.0060443617 1.9483278 1.4675387 0.91414547 0.4226314 -0.90405697 -1.5024534 -1.6882442 -5.3164673 -0.7410618
five -0.3690569 -0.7131096 -0.16297041 0.9319146 -2.1976333 -3.5072534 2.9089947 2.1434646 -1.5334225 0.546864
source -0.7759392 -1.0186825 -1.0602708 -1.5351344 -1.5540816 3.327808 2.1351082 1.3416909 -2.4020643 0.7683188
1993 0.81177354 1.558471 1.3766581 3.3691828 1.1900066 -1.2196501 0.27251077 1.1278149 -3.0139556 2.569346
here 2.2490118 -1.5713435 0.98149645 0.61558867 0.33466512 2.0057554 2.1005685 1.2383229 -0.28026164 1.5981271
industry -1.4693018 1.026775 -0.47891644 -2.5236826 -0.8520473 0.6760669 0.35227537 1.2598917 -2.554593 -1.2224513
david 2.4556572 2.8280623 1.3509805 2.4649506 2.9235313 -0.026963955 -0.21277678 -0.7561836 -3.4365811 0.23405688
museum -3.7809844 3.1902094 2.2432525 1.0605177 1.0030159 2.357984 0.98823106 0.12166258 -3.4705102 0.63500196
historical -1.2958983 0.9457737 0.9653066 -2.4476237 -0.5563899 2.7452486 1.699737 0.6984359 -1.8032442 -0.834355
probably 0.75449294 0.18655612 1.8484167 -0.748649 -1.6939429 0.3154352 3.3491426 1.3289577 -0.8144277 -0.8918172
births -2.817979 2.6753454 0.8921418 2.6241834 7.32771 -2.7161765 -2.305251 -2.6911802 -8.150635 2.203844
catholic -2.6505227 3.5329657 3.0111833 -0.59455055 -0.752305 0.7791467 1.3335173 0.23462106 -3.1458638 -0.9282524
nations -3.5378358 0.86578375 4.0144506 -3.1824787 -1.9986999 0.45983416 -2.4889753 4.56869 -1.4479362 2.4095056
office -0.6274736 2.7006226 0.43019077 -0.41117612 0.6909132 -0.8325674 1.6087645 2.575666 -0.5036195 0.1401564
author 1.0294098 1.5154568 1.7848058 1.0776553 0.38292244 0.70442706 0.94413054 -1.2080444 -3.2390614 -0.50573826
introduced 0.97269654 1.5918612 1.9678165 -0.19449706 -0.05896013 0.48983046 1.965688 -0.043081395 -1.5463532 0.6169667
energy 0.019217752 -2.1649797 -3.1689177 -2.4999046 -1.6422472 1.7139113 0.5115555 3.646983 -1.8906764 0.43732408
originally 1.3125968 0.8805455 2.4406161 0.024833681 -1.0103552 0.939469 2.539626 0.8874866 -0.7110062 -0.63215077
recent -0.106783204 0.73210883 0.71680516 -2.0198762 -2.589436 -1.6785927 3.6780722 1.3966883 -1.1922675 -1.002332
too 3.326896 -1.9363377 0.08778504 -1.9883558 -1.2687293 -1.320429 3.171974 1.6493837 -0.5208017 -0.9685758
j 1.5999479 0.64470315 0.10767707 2.3745902 0.7634179 0.89916295 -0.12872776 -0.43784934 -3.5560946 1.1634334
uses -0.12228379 -3.079357 0.52255666 -1.2824401 -0.7663534 3.5473695 0.06309908 0.53812903 -2.558517 -0.12627856
significant 0.2575664 -0.31610563 -0.12005371 -3.2421997 -2.3067353 0.8698853 2.1754 2.3234975 -1.2335162 -0.915099
therefore 2.6366563 -1.9931068 -0.6568524 -1.537918 -1.2598702 1.7083238 1.733106 2.9958968 -0.70624447 0.2925401
30 0.2365072 -1.7825643 -0.6274587 3.9716842 -0.62568307 -2.678781 1.5525714 2.1528196 -2.8513358 3.7898211
october 0.5445119 1.0353465 2.819193 5.277852 2.350285 -4.061194 0.5511182 1.7476228 -2.1727464 3.463834
paul 1.816641 2.742061 1.4325109 2.5021985 1.6239804 -0.39466485 0.8505484 -0.2426154 -2.4949281 -0.46996677
community -2.2174077 1.8745662 0.62954557 -1.9078038 -1.3452939 0.6512732 0.3130804 1.6782799 -2.6467054 -1.274159
higher 1.2288384 -2.1161883 -2.9871907 -2.1353526 -2.3235505 -1.411384 1.1857443 1.974112 -2.672716 0.35868537
song 1.0978055 1.3046741 0.7616953 1.7429537 0.39849856 1.0076246 2.4518003 0.19526492 -1.5344552 0.021146176
special 0.9461501 0.2718963 0.043315127 -2.2376163 -0.15450674 1.5691369 0.9387318 1.7217381 -0.969345 0.18061967
style 0.31896636 0.31539983 -0.1988972 -0.6728726 -1.4025053 1.2802765 2.4209676 0.16458307 -2.2003891 -1.5239757
my 4.401334 0.7148967 -0.79018754 1.239683 2.7684007 0.83875465 2.8843424 2.0440047 0.43695977 0.849674
video 1.0059829 0.5283116 -1.3472152 -0.10809592 2.2349854 2.6329455 1.2343277 0.4240181 -1.9342207 -0.47286776
final 0.24327552 0.99815685 0.693041 0.53217417 0.4911746 -0.50450665 3.6193976 1.8292994 -0.19472265 1.849295
h 1.9470574 -0.12113999 0.10791279 2.3377037 0.3943014 0.8737562 0.028157847 -0.95047534 -3.8045235 1.6847919
founded 0.10992922 4.1355906 3.8217256 1.2789328 -0.124941505 -0.82701766 1.2815274 -0.48292342 -2.8741078 0.40221804
continued 0.9387108 2.0214097 2.0332317 -2.387063 0.06939421 -1.9459444 1.259577 2.571943 0.10918348 -0.1263578
technology -1.1683614 1.3536985 -1.356824 -1.8743856 0.25587377 2.2623775 0.059967756 0.5304709 -3.1345067 -0.6019597
dylan 2.4731843 2.7549345 -1.0435787 2.1268978 1.5125219 -0.0988585 3.5534508 1.5112265 -0.87267286 -0.5069644
royal -1.9174893 3.7369478 2.128229 -1.2185167 1.0927685 -0.95283717 -0.5063141 0.47413993 -2.7406647 -0.24340044
influence -0.4647857 2.3944983 -0.123943634 -1.8609453 -1.6009729 -0.1804738 2.1243997 2.6539526 -1.3596462 -1.5639
eventually 1.4125636 0.9731567 0.53840846 -1.1149379 1.0800592 -2.0049503 2.6256757 2.1878798 0.3678695 -0.6448892
leader -0.112233445 3.222478 1.7059481 -0.12536319 1.2135493 -1.2372037 0.37639892 -0.28826928 -2.549371 -0.96996087
acid 3.2641075 -5.1452394 -2.0023808 0.48446777 -2.260645 3.327832 -1.2171217 1.9310868 -4.830495 -0.5983982
13 0.051587176 -0.69835865 0.94671935 4.2011642 0.72113115 -2.09602 0.9382336 2.229351 -2.527057 3.6733694
june 1.0856214 0.8040195 2.7346754 5.346207 1.5754293 -3.5287287 0.66928315 1.7767371 -2.4388616 3.817771
described 2.9045002 -0.23993987 1.8209021 -0.028830733 -2.6411917 1.3608841 1.8977308 -0.24163355 -2.4088702 -1.0960828
referred 2.0207055 -0.21359059 1.7397847 1.1722136 -4.5048738 2.4116032 0.21348721 0.9104216 -3.1842713 -2.3986983
indian -2.9811807 1.9524231 2.197224 -1.0613853 0.13603145 -0.9799148 -0.44165495 0.08370576 -3.3615046 0.25174925
run 0.20372741 0.056688502 -1.0347257 0.14179741 -0.19129932 -0.28681877 1.3087811 3.2440553 -0.48301962 0.5446971
subject 0.6318283 0.6151948 0.19577576 -1.927618 -1.3757131 1.5268693 2.340911 2.3807242 -0.7663683 -0.56995344
always 2.7292109 -1.4549491 0.18091315 -1.803031 -1.2808603 1.6136082 2.513676 2.393144 -0.31803694 0.1215124
effect 1.488964 -0.59179795 -0.40910763 -1.4607576 -2.257785 0.761765 1.1331197 3.7381828 -0.8070317 1.0546988
per -0.17676423 -4.0638423 -2.2972965 2.888858 -0.8721778 -1.8371904 3.342453 0.4827813 -3.1935651 2.8428006
traditional -0.8251798 0.26159978 0.47043452 -2.6722448 -1.7799127 1.0883152 0.16924591 0.6990237 -2.832945 -0.8413337
lower -0.19067231 -1.7553095 -1.067758 -1.8958063 -2.1141896 -1.8444095 1.419957 2.223921 -1.7706684 0.8617371
events -0.77352524 1.4062883 0.25208637 -0.27442214 -1.3648337 -0.3518158 1.614105 1.9571669 -1.3020549 0.03205861
education -1.5521089 1.8807555 -1.1165998 -2.3897493 -0.13372049 0.42750555 0.9485036 0.6396094 -2.687489 -1.3676097
true 1.9317776 -1.3293597 1.0927491 -1.1521109 -1.2357603 2.5745983 2.5742254 2.1233058 -0.7146159 0.48381355
received 1.2756121 1.1193095 1.9846625 -0.030159617 0.38596737 -1.2250115 2.194063 0.51475614 -0.82286274 -0.6670821
 1.0196242 -5.6647134 0.3442993 5.6076217 -1.4720163 -0.94768834 1.4036058 0.7811728 -5.4262214 3.8784614
building -1.7093037 1.0017897 0.38187817 -1.386122 -0.5419209 0.24471617 1.3378626 1.3590729 -1.616468 0.10255069
low 0.36599296 -2.7905579 -1.483481 -1.4966929 -2.0773406 -0.7911824 1.5229032 1.7270842 -2.2223759 0.8943386
prime 0.6642021 4.221019 4.3929133 -0.46953368 0.9581561 -2.3195856 -1.3101712 -0.42587763 -3.6796134 -0.061305787
names -0.62966806 -1.0282822 0.7505773 -1.604068 -2.786316 1.2887822 0.6458935 1.2806522 -2.473542 -0.26211512
singer 1.0601532 1.7500811 1.0182182 1.9750394 3.1579688 -1.1026201 -1.8530579 -2.0346737 -6.787243 -0.32552594
acts 0.948533 0.18299557 0.60115576 0.28805542 -1.0551621 0.20819262 1.2843262 1.5334284 -1.0949671 0.37936038
cases -0.22033708 -1.4206779 -0.09184943 -1.8763287 -2.569783 0.27366543 0.9006979 3.4905283 -1.3639787 -1.2153392
14 -0.12643075 -0.88636374 0.9229597 4.1395864 0.5189731 -2.2603066 1.331245 2.2863948 -2.5155656 3.6869369
related 0.23279172 -1.3014207 -0.54793984 -3.4794054 -1.7682797 2.4754884 -0.29423264 1.9796652 -2.2929294 -0.2654388
independent -0.8601706 1.6326566 2.1252885 -2.6905038 -0.56981635 0.64683443 0.5426217 1.2847259 -1.5244732 -0.5636904
a. 1.6094478 0.021144623 1.8875637 2.614303 0.75456977 1.4925534 -0.8764133 -1.4584076 -4.3223104 0.57910496
change -0.12892866 -0.7284519 -1.5534142 -1.4932665 -0.89623284 1.3438435 2.4282708 3.2879753 -0.3654474 0.14832504
charles 1.5000025 3.2615297 2.5819576 2.9360363 2.8911953 -1.0045075 0.22094083 -0.64049584 -3.2400293 -0.76955175
followed 0.82115847 0.70889044 2.2171845 -0.13320896 -0.22423087 -1.9572612 1.8660039 1.0686402 -0.7495401 0.48452988
canada -2.1280203 2.1577618 3.3816793 -0.19867457 -1.393703 -0.7292099 -1.3892552 1.6904477 -3.0612319 0.9560501
commonly 1.7482294 -2.2262666 1.7149733 -1.00169 -3.1674075 2.545072 1.627407 0.9499452 -2.4132283 -2.393502
trade -2.6818204 1.6941904 0.13298944 -1.8302162 0.119091585 -0.0076441136 -0.5344639 3.015504 -1.5292759 0.28906804
remains -1.839234 -0.74166787 1.873489 -1.5467927 -1.0941523 0.63314134 2.461331 2.4055755 -0.4174071 -1.7873714
base -1.3772027 -0.5455348 -1.0174305 -1.2532977 -1.0740966 0.6067111 0.5236959 1.8612906 -2.1774273 0.65488696
1990 -0.5129275 2.0487568 1.5734175 3.3376486 0.70273 -0.8011397 -0.09367094 1.3673245 -2.9440694 1.7561299
real 1.311623 -1.0537972 -0.85047174 -1.2718139 -1.3646804 1.1357304 1.9103475 1.4120159 -1.449453 0.62815696
russia -1.3467377 2.504676 2.0531633 0.5365153 -0.33645964 -1.5559918 -0.53357786 1.9084852 -2.1101623 1.2629064
e.g 0.25339663 -1.3014492 -1.5414675 -0.2880278 -2.602489 0.942034 -0.31266373 0.9334517 -3.6488678 0.21500307
radio -1.4829764 1.3564935 -1.4362711 0.56102145 2.2656844 2.1947217 -0.63570166 1.1864833 -2.7291408 1.8670733
despite -0.97836846 -1.1475725 0.8230684 -2.3113503 0.6385394 -0.45226234 2.561404 1.385823 -0.21469408 -0.83498317
includes -3.2235816 -1.5193096 1.7106072 -1.0058503 0.71528083 2.4522507 0.40362608 1.0181247 -1.7132025 -0.57635164
legal 0.5233019 0.48502216 0.16596021 -3.2441201 -0.33268917 1.1111398 0.76314956 2.4692807 -0.72363305 0.11844299
played 0.52725923 1.6901263 2.0009313 0.56581175 -0.63405246 -0.1598295 1.8022598 0.21769877 -1.7664174 -0.529739
chief -0.3749142 2.9547713 2.450984 -1.3608325 -0.077964336 -1.0558511 0.5759484 -0.11142515 -2.3418255 -0.36106685
live -0.76423556 -0.419818 -1.3464489 1.1099539 -0.09745738 -0.7470482 0.37341544 2.4838774 -1.3399692 0.38087168
al 1.8175888 0.8181794 0.92183423 3.6016307 1.6397748 1.9905137 0.30294272 -0.2547018 -2.738748 0.17762236
peter 1.4261547 2.8125799 1.3939171 2.4643278 2.2493384 0.3413539 0.51147884 -0.90294665 -3.2674851 -0.5272264
rule -1.1241915 1.6549225 1.2582912 -0.68513393 -0.3989956 -0.9684189 2.7665985 2.680165 -0.3061846 -0.67673045
17 0.03698467 -0.4177473 0.9290321 4.4762697 1.1830119 -2.746709 0.67619365 2.1723888 -2.9165761 3.8462267
religion -0.7779545 1.0102429 1.1641983 -2.3627732 -1.1972502 1.9019933 1.1655878 1.7452081 -1.5276132 0.017245766
flight -0.9896735 0.10025069 0.16646014 0.72717017 1.4040638 -1.7666324 -0.554226 2.3550477 -0.9394373 2.3111527
killed 1.7598308 1.5459402 0.95382935 0.5638584 0.44672373 -3.6271665 2.3601196 0.6470505 -1.6585914 1.1755406
college -2.396222 4.076707 2.4248788 0.4710445 0.64070237 0.044688445 1.8576871 -0.42681822 -3.3447473 -0.3946451
medicine 0.12770006 1.2549546 -0.54040647 -1.3112397 -1.2410127 3.3991919 -0.5074456 -0.11275097 -4.0867333 -1.0932798
outside -1.3779997 -0.12982492 1.1343416 -2.2648182 -0.4730023 -0.8923942 1.3970697 1.7652318 -0.7629027 0.24453412
mother 1.3051035 1.5053835 0.02831462 1.7847003 1.1587389 -2.0154927 4.508812 -0.13824412 -1.7827373 -1.0983362
coast -3.8544362 0.74225867 2.433118 -0.28945184 -2.5263429 -3.1437972 0.21236636 2.0082853 -3.3635263 1.7415353
hand 0.7706692 -0.15372093 -1.8711569 -1.0073632 -1.2136637 -0.9348968 1.8167096 3.1828089 -1.2459655 0.6575389
cause 0.60260856 -2.2333944 -2.6203313 -1.6103643 -0.087057516 1.0617238 1.5764008 3.4038765 -0.6842196 -0.428446
value 1.2985213 -2.5931911 -1.3387519 -0.941755 -2.2306564 1.8397617 2.3827658 2.52086 -1.4037274 1.3879654
food 0.67237973 -1.4966978 -1.5021757 -2.4891696 -1.5647237 0.51729155 -0.71642834 2.0100734 -2.7003443 -0.6487073
personal 1.542478 0.87235105 -0.86064595 -2.246714 0.6918445 -0.06582891 2.3513892 1.0559418 -1.0625485 -1.4723798
whether 3.1407733 -2.0831873 0.77599984 -2.948725 -0.89298475 1.6187041 2.407598 2.9048674 0.041204024 0.17848071
actually 2.8633926 -1.3286637 0.6979213 -1.5366511 -1.022488 1.0604075 2.7110763 1.9818618 -0.12237455 0.18735223
1991 -0.48257747 2.1792212 1.547121 2.9305463 1.1147724 -1.1130861 -0.13077766 1.3057282 -2.6995535 1.8733549
formed -0.21229276 1.2049047 2.0829985 -1.3841248 -1.4480481 0.0043895543 0.7987507 0.5032432 -1.998761 0.638353
able 4.842038 -1.0707351 -0.6585867 -3.3808544 -0.042365294 -0.22635524 1.583698 2.7503757 -0.50384635 2.4261823
record 0.025351865 0.4872251 -0.37671968 1.1247631 0.41742983 -0.1841202 2.5307727 1.3643295 -0.96828616 0.916201
gave -0.49744734 -1.1577244 1.8351519 -0.80241144 3.7114606 -1.4573202 2.5856965 1.0065775 0.7682482 -1.1382413
action 0.4860544 0.38017225 -0.5939935 -1.9208775 0.13398485 1.0218978 1.1424607 2.5583417 -0.7028026 -0.07822635
organization -2.0012236 1.9577854 0.62320584 -2.4442134 0.94820774 1.5236497 -0.4447192 1.366564 -2.3841496 -0.06545854
text -0.041768227 0.27922615 0.15962636 0.17622343 -0.8770039 3.366631 1.3006386 0.84069043 -2.110505 0.71798164
say 2.1546874 -2.4977033 -0.20280997 0.76106673 1.1387842 2.5127363 2.9588845 3.3250883 0.4248144 0.6449485
25 -0.0028216012 -1.4304993 -0.05431566 3.7132063 0.12053579 -2.9361115 1.1509464 1.6535808 -3.200875 3.8754385
project -0.6016985 1.9971982 -0.45035502 -0.36036903 2.0496883 2.5447564 1.3639114 1.1934125 -1.4120104 1.2835431
2006 0.99560845 0.7460489 1.4113096 3.6398902 0.49400166 -2.0739746 1.2933943 1.9898075 -1.5778416 2.9084806
prize 0.13197723 3.7103474 0.12463459 0.7626673 1.0651926 -2.2676187 -1.0712439 -2.379656 -7.4212203 0.14310704
model 0.53486854 -0.20976247 -0.6034178 -0.35917798 0.14042597 1.8531144 1.3901212 0.6069736 -1.6187377 -0.5225183
austrian -0.521184 2.9110947 1.8394842 -1.0168155 1.0007864 -0.66712964 -0.46931046 -0.33381924 -2.5886517 -0.8549063
brought 0.14408737 1.3472425 0.8242879 -1.1122686 0.7787215 -1.6944374 1.8225243 2.2704992 -0.28811392 -0.08685807
peace 0.05677038 3.1522298 0.9488888 -0.6695508 1.0942287 -1.4768065 1.285885 1.8166418 -0.64687407 0.47557116
basic 0.53309727 -1.1439998 -1.0499487 -2.380432 -0.9477549 3.186385 1.2031162 1.8141133 -1.794336 0.37844214
sound 1.1472827 -1.6089783 -1.8288156 -1.3535051 -0.27854767 1.9272974 0.8881092 1.0666653 -2.1537669 0.26908508
widely 1.6844318 -0.6571863 2.1439667 -1.6567061 -3.0501878 1.7483615 2.4481373 1.414333 -1.5045298 -2.0810876
japanese -0.019780561 1.2891245 1.2294216 0.040125996 -0.30826363 0.09531989 -0.8364879 -0.031706918 -3.037981 0.7241477
star 0.30377528 -0.78598785 -0.039132465 1.567047 -0.5866995 1.7943208 1.9329054 0.15089796 -2.1297812 0.84739536
market -0.62321866 0.97631323 -1.2321874 -1.607563 0.1512107 -0.1666297 1.237906 2.455558 -0.94770515 0.14721961
away 1.443267 -0.4720327 -1.6228611 -0.5281071 -0.015444378 -1.9221401 1.7299429 3.809568 -0.21516933 1.2416248
attack -0.099116065 0.7370347 -0.09615069 -0.64275247 0.6928789 -1.5549302 0.91102433 2.465655 -0.6224298 0.69770354
federal -1.5177503 2.4116614 2.849406 -2.552287 0.94362116 -0.75526816 -1.2247223 2.3565125 -1.1664541 1.2095902
located -2.5320942 1.2265117 2.7228446 0.44896105 -3.0231366 0.046704948 1.492903 1.1290336 -3.2115815 2.727479
claim 0.33177114 -1.398053 1.191418 -2.0471525 -0.44775492 0.800541 1.7160511 2.7907412 0.08019497 -1.1345348
asia -2.9883757 0.86746985 3.2556915 -0.69680977 -3.6336355 -2.0926797 0.06612669 2.2716777 -3.5345097 -0.2092036
dutch -1.0155171 1.8449006 2.287055 0.29352224 -0.7442754 0.12934521 -1.2776661 -1.1442277 -4.84709 -0.87796277
arab -2.6354942 2.126975 2.692355 -3.1238916 -1.0348612 0.36129758 -0.7775781 2.559107 -1.6821423 -0.30180687
egypt -1.3487936 2.4798117 2.2639744 0.37077 -1.0573593 -1.2385012 1.0682292 1.7580973 -1.6425307 -0.2908021
function 1.769754 -3.2996478 -1.4090974 -0.2876405 -1.5652629 3.4258885 1.1730969 2.0910845 -2.1388326 0.49900046
alternative 0.8311632 -0.7011006 -1.0861353 -3.10707 -0.39234543 3.6355362 0.5200341 0.7235349 -3.1341457 -1.2999938
fire 1.2725037 -0.38796905 -1.606988 0.14414777 0.119153574 -1.2360649 0.34781212 2.8060012 -0.9505469 0.5335454
close 0.6209854 -0.0928974 -0.26295057 -0.9622802 -0.6192705 -0.95581007 1.8172787 2.293157 -0.56355506 0.5990225
towards -0.44648144 -1.0081903 0.40433216 -3.738998 0.97428447 -1.5274955 2.1876817 1.239105 -0.26566735 -0.21459092
majority -1.2170577 0.5621919 0.8926111 -2.1396608 -2.411445 -0.9366858 0.9028684 2.5578232 -1.4049641 -0.21322079
simply 2.5247722 -1.9639671 0.5542818 -1.3190829 -1.0173265 1.4646571 2.1684246 1.0354474 -1.1452049 -0.32300258
structure -0.22709931 -1.5802433 -1.1483343 -1.5910896 -1.2542577 1.6497871 1.0843525 2.140508 -1.81592 0.34885803
scientific 0.17163578 1.2151618 -0.5810929 -2.9302874 -0.068666704 2.43012 1.1785618 1.2975225 -1.6013582 -1.858719
rate -0.4962579 -3.1265442 -2.8962822 0.96101594 -0.43805903 -1.4033858 2.55911 1.2496687 -2.9080935 2.4308414
100 -0.757715 -2.9683316 -2.1779478 2.5935369 -1.8681583 -1.9622523 1.9122827 1.7446891 -3.2225783 2.2494655
laws 0.17182486 0.42156783 0.20422399 -2.7540414 -0.030431148 0.057244398 0.31229115 2.90244 -0.6165256 -0.29760748
believed 3.2856116 -1.2852991 3.2132692 -2.327329 -1.0481508 0.34120315 1.7175866 1.7677622 -0.13379575 0.5818264
half -1.7441968 -0.43175787 0.47624674 0.8253653 -2.0012574 -2.7907584 3.865384 2.1116734 -1.7106209 0.45439526
defense -0.30386046 1.1103597 0.29705173 -1.9442465 -0.08473184 0.5858487 -0.784311 2.11076 -1.4480567 0.9329908
saint -1.0572948 4.025582 3.3296816 2.2052584 1.8043604 -0.34108126 1.5285584 -0.950979 -3.7051425 -0.24247947
class -0.078174405 -0.50012755 -0.06469077 -1.0688201 -1.3593001 0.6168434 1.0482556 1.2794075 -1.6040863 -0.17727636
animal 0.3498124 0.20403594 0.2426573 -2.9990048 0.025013002 2.017662 -0.12062213 1.2373388 -1.9645288 -0.3011644
lines -0.6814926 -1.5538528 -1.1327714 -0.9164644 -1.4720011 -0.77702373 0.93682647 2.2459815 -1.7644622 1.8182869
went 0.032262236 1.1783156 1.382501 1.8699256 1.4271535 -2.4027061 1.321078 3.4614437 0.5557637 -0.85843265
types -1.375934 -3.0223958 -1.655592 -2.9464836 -2.4822054 1.1769568 0.11860432 2.762731 -3.0237393 0.21370585
business -0.637847 1.2048863 -0.6824272 -2.3037176 0.719404 -0.024163734 0.7298434 0.938219 -1.7282389 -0.19946487
physical 0.76860446 -1.1170036 -2.0398152 -3.8570096 -1.0502559 2.277446 0.43521944 2.1730866 -2.1677344 -1.0443052
size -0.40482172 -3.036326 -1.4944254 -0.8786596 -2.099694 -0.03997275 1.9371341 2.1808949 -2.0183423 1.0526047
clinton 1.2523487 3.3776116 1.1171587 0.13846344 1.8883976 -1.1503106 1.2349627 1.8568954 -0.57149154 -0.10117646
mostly -0.7108934 0.30830657 0.9045292 -1.8598069 -2.5895157 -0.8229596 0.33544576 1.5651388 -2.2545478 -0.09369465
sense 1.0166357 -1.3706058 0.2679657 -1.04635 -1.9243591 2.2674208 2.569666 2.6249433 -0.6346989 -0.55593026
features -0.4453133 -1.4361931 -0.3100357 -1.3794886 -1.1024601 1.7180955 0.6792704 1.4382311 -2.0238264 -1.4984773
individual 0.841849 -0.827323 -1.6386482 -3.1727643 -1.3533566 0.5795853 1.2158365 3.3254402 -1.080613 -0.04366912
february 0.9045434 0.6105821 2.8713517 5.477416 1.9283211 -3.1623943 0.56365234 1.4864346 -2.4955995 3.949311
est. -1.177076 -3.0350108 -0.8417274 3.964025 2.1194298 -0.8505027 -0.3910833 0.394114 -7.319713 4.918307
alcohol 1.8087157 -2.8849838 -2.270546 -2.1749876 -1.7308472 1.6405671 -0.47084755 2.0670555 -2.8382032 0.007848611
oil -0.5399958 -1.1670943 -0.56900406 -0.3146748 -0.8119324 0.22776332 -0.56025845 1.4001005 -2.3311722 0.43882778
wife 1.7618018 2.0598218 0.7395502 2.99294 1.5977105 -2.692249 4.476659 -0.7009417 -2.7053459 -0.7514736
effects 1.3728527 -1.7580667 -2.5227103 -2.9615672 -1.5535674 1.4875013 -0.25257424 3.3124254 -2.1346924 0.33125463
designed 2.6458666 -0.10204591 -0.10596313 -2.050101 -0.042877104 0.7830671 0.47218838 0.9403798 -1.4184994 0.6917774
return 0.39037168 1.2032268 -0.84205496 0.68709445 0.70889777 -1.3196207 2.6120071 3.129011 -0.07740329 0.4641779
give 0.59569514 -2.4157488 -2.1965523 -1.7384921 2.0368044 0.44287857 2.3723361 2.6845617 0.016923048 0.039629288
blood 0.724633 -1.5757184 -2.3553498 -1.5401096 -0.11484811 -0.5092143 0.07942665 1.9637716 -1.8983327 0.8107394
six -0.5407341 -0.5960676 0.31152543 1.0818105 -1.8387922 -3.0316563 2.5254276 1.7633386 -1.6601808 0.77998304
afghanistan -2.5100524 3.3042169 1.980555 -1.2924219 -0.4077911 -0.15116163 0.96672744 2.19631 -1.8349738 0.59544116
news -2.1123188 2.7760096 -0.5340447 -0.17559129 3.2740664 2.8655016 -0.3983785 1.3054157 -3.0971138 2.4076931
spanish -0.57818526 2.351567 2.4191363 0.26413417 -0.07652317 0.012161846 -0.5903981 0.18178867 -2.8754315 -0.17558904
1992 0.073001504 1.5252846 1.450488 2.9228334 1.6328367 -0.65501755 0.13205865 0.5781164 -2.768509 2.0081205
independence -1.9963499 3.391589 2.0494688 0.36391038 0.7959917 -1.6708766 0.6313769 2.8261008 -1.1214175 1.674806
problems 0.74754936 -1.0058507 -2.2690384 -2.8482156 -1.2590272 0.8990299 0.589217 2.86844 -2.011431 -0.75518376
moon 0.21157576 -0.04621303 -0.91371816 2.10012 0.16975528 -0.57990587 2.548585 3.2430954 -0.70537025 2.859205
female 1.3312306 -1.4757507 -1.0759403 2.3902287 -0.92218304 -1.0532427 1.2754942 0.79745126 -3.3120568 0.25512514
soon 2.1523046 2.120534 1.3481277 0.25693718 0.5661638 -1.8087453 2.7392612 2.1840603 0.071914546 -1.589507
earlier 0.073249385 0.013658204 0.13398501 -0.67597884 -1.4461943 -0.90406066 3.3517487 1.0824243 -1.1289201 -0.894392
origin -0.62851876 0.2920864 1.0256567 -1.5118684 -1.9817019 1.6803931 1.4963611 1.458874 -1.7090565 -0.20409366
beginning -1.2122599 1.6369162 1.6608557 0.83745337 -1.2108767 -0.9604456 2.9429078 2.2101471 -0.98709065 1.1092607
uk -1.5923722 1.3050457 1.440096 -0.13095127 -0.44394606 0.88452333 0.5663394 0.5046324 -2.2742004 1.1166953
board -1.0365456 1.9714956 0.024088768 -0.6731011 1.254258 1.4112711 0.12494147 1.0524114 -2.0557003 0.6337561
association -2.294581 2.4310558 0.15617672 -1.7950516 0.7637475 1.4529897 -1.1201152 0.15633047 -3.8766453 -1.0280159
put 1.6969148 0.6629749 -0.43035567 -1.1990484 0.8408985 -1.2882453 2.7839067 2.7973228 0.19914724 0.79176795
associated 1.9674796 0.4385435 -0.37657538 -1.7563521 -1.8413169 0.8454652 -0.0968121 1.3622984 -2.3689902 -1.5740288
love 2.3397076 0.98383933 -0.6056518 1.5291294 0.88257486 0.45580527 2.814856 1.2401185 -0.9074895 0.12005767
larger 0.5821152 -2.3821774 -1.4194056 -2.1284075 -2.7970777 -0.8105754 1.4819722 1.9228368 -2.2889824 -0.47844034
ocean -4.2214775 -0.41608912 1.3364742 -0.20956706 -1.9351054 -1.374915 -0.20805877 2.8873057 -2.7349534 2.016877
services -1.427804 0.1706696 -1.5602942 -2.8932817 0.6428932 0.17304707 -1.0778548 1.2243307 -3.1338348 0.14460298
problem 1.5297647 -1.0265986 -0.5980742 -1.3005049 -1.2320566 2.1025143 2.4118886 2.6842027 -0.69752645 0.049247365
typically 1.7292397 -2.4418707 -0.65884095 -1.5761437 -2.699216 0.27115974 0.51753604 1.6178068 -2.5005574 0.42670718
allowed 2.135834 -0.724679 1.1187929 -2.6950803 0.19796132 -0.38947105 1.148019 2.0540192 -0.054307688 1.1853234
limited 1.3344007 -1.0806065 -0.84508795 -2.5474882 -1.2214177 1.1429243 0.6406111 1.8810961 -1.6357486 1.0144863
g 2.0016782 -1.3814547 -0.20578784 2.9341283 -0.046148796 1.919963 0.26433456 -0.22871354 -3.7879374 1.9390293
henry 1.3931953 3.5315268 3.1604853 2.867557 3.009526 -0.8327778 -0.38967463 -0.92138785 -3.87784 -0.53585386
characters 0.67532337 -0.82773787 -0.7094894 -0.20791042 -1.5308487 1.3243971 1.4554598 0.9511806 -2.1469538 -0.37271342
examples 0.15909432 -1.1029931 -0.0067437394 -2.2806087 -3.0523462 2.4168947 0.55875444 1.6048635 -3.0768228 0.47047856
ad 0.33849597 -0.665665 1.6990019 2.7980397 -0.46889243 0.12037877 1.6739695 -0.30855873 -2.2640657 0.726484
note -0.11342817 -1.1239587 0.23551306 0.60339177 -1.0231125 3.244839 0.81589484 2.3461747 -1.210877 1.3671709
whom 3.1106532 1.5374178 1.2133124 0.3730745 -0.36938795 -2.7054436 2.6978424 1.115046 -0.8774773 -0.7145223
native -2.3317657 0.25484198 0.888166 -1.7284586 -1.7221992 -0.77804357 -0.11694071 0.6265998 -3.0304332 -1.4202573
practice 0.0401513 -0.22143134 -0.26899898 -1.799821 -0.9404131 0.5716158 1.713462 2.550271 -0.73768187 -1.0220389
policy -1.4196119 2.3085723 -0.15726873 -2.7910485 1.0175784 0.49116227 0.46413314 2.4827924 -1.2094281 -0.39067146
elements 0.03389331 -1.4678854 -1.0539017 -1.8219664 -2.105326 1.4842254 1.1678925 1.6965531 -2.3836865 0.44509313
yet 2.4156606 -1.7345564 1.8811243 -1.1948525 -0.4295385 0.7429936 1.5228472 3.1788654 0.37198758 -0.9876328
go 1.9823347 -0.446315 -2.2875524 0.89152825 0.97118104 0.2019297 1.8911289 4.5626216 0.26751974 0.87798005
nearly -0.46748543 -1.159648 0.2172014 -0.13912824 -1.1849263 -2.2681906 2.8957214 1.8115776 -0.67573905 0.68293256
greater 0.9983211 -1.2255447 -2.3899567 -2.0278718 -2.3913553 -1.7660288 1.7382408 1.5625367 -2.3482475 -0.5730137
highly 1.4401324 -0.50103635 -0.19208863 -2.5237298 -1.654759 0.82613325 1.588405 1.6896709 -1.4048171 -1.9883976
material 0.17808633 -1.3450441 -1.1498556 -2.0110292 -1.5507506 1.4857844 1.5803125 2.2881155 -1.6004262 -0.19812363
studies -0.90890026 0.60428095 0.5288866 -1.1059813 -0.52381104 1.204404 0.8008334 1.0428157 -1.6884795 -0.24378607
writing 0.77763623 0.58216786 0.33032718 -0.49318206 -0.8920555 1.2049669 2.2201517 0.68354696 -1.587151 -1.0867186
section -1.028451 -0.028959567 1.5176176 1.6918457 -0.68431175 2.3036134 1.77068 1.3150121 -1.4685218 1.922813
growth -1.6648902 -0.6946283 -1.6042725 -1.1909462 -0.90394247 -1.1229038 1.5669829 2.3159878 -1.8878862 0.52947414
products -0.14017256 -1.4752079 -1.840686 -1.914233 -1.0469705 0.6848782 -0.9745015 1.6259497 -3.054568 -0.3900025
austria -1.3520907 3.0793066 1.7200683 0.35196725 0.101039805 -1.3103968 0.3150053 1.8011789 -1.8492389 0.32213116
get 1.1203748 -2.2322893 -2.2198527 0.61265945 2.7869008 0.31632945 1.7087768 3.0182638 0.11612262 0.5368768
appears 2.0250084 -0.7757165 3.4696622 1.0915267 -0.23675136 1.1797411 0.9282715 1.5263126 -0.39986908 -0.74146116
lord 0.6973316 2.086878 1.8568991 1.7809914 1.045956 0.6209033 2.563072 0.9657908 -0.80009156 0.79056823
started 0.6176347 1.6609685 1.8166775 0.009561439 1.055861 -1.5795294 1.8239194 1.4624386 -0.26087108 -0.33580828
past -0.8031108 -0.25161055 -0.2015088 -0.73009753 -1.5696522 -1.1297174 2.1358848 2.9466226 -0.8896751 -0.096739404
assembly -0.69197226 1.2582874 1.1522317 -0.9553418 -0.873491 0.3953638 0.28169587 2.4396818 -1.1771271 1.0613654
largely 0.5126027 1.3453602 0.8455659 -2.5313945 -1.1005437 -0.03202767 1.7579298 2.0826437 -0.8422777 -0.32969478
variety -0.6031285 -2.1143346 -2.4657297 -2.021798 -2.4320583 1.5473984 0.65605885 2.0052834 -3.07084 -1.1820098
surface -0.9963633 -2.3607411 -1.5970261 -0.31038225 -1.375546 0.25254798 1.2725364 2.9345164 -1.7142304 1.9007648
caused 1.4218616 -0.9068471 0.51155114 -1.8348223 0.40557063 -0.75922847 0.45988452 1.9255244 -0.5592618 -0.26018617
perhaps 0.61439955 -0.49557588 0.5618799 -0.64235187 -1.9795635 -0.27485716 2.693862 1.1473509 -1.6301401 -1.7719617
sent 1.2387354 1.920656 1.2890166 0.09718943 1.9268798 -2.4933493 2.0418303 1.2590655 -0.62242407 0.4799088
married 3.6045895 0.7915553 2.3700833 3.4410737 2.4121022 -3.1678317 1.9799905 -0.70229673 -2.467523 -0.043396477
sources -0.45282894 0.09989495 -0.3404168 -1.2377285 -1.7057548 1.561745 0.6425272 1.2600381 -2.475901 0.43801475
success 0.083742104 0.89293945 -0.06761686 -0.5329381 -0.07417738 -0.8418426 2.705581 1.8772292 -0.64484453 -0.19848621
me 3.848797 -1.1021212 -0.9626583 1.3995606 2.376466 0.91260123 1.9881505 3.3819747 0.30345258 1.7196205
average -1.0165688 -3.0319576 -1.6927197 0.79394454 -2.3310792 -1.0087142 2.356646 1.2660993 -3.1302428 2.3848376
la 0.28239605 0.9381346 3.0138383 3.2800999 1.551482 1.4532971 -1.3383504 -1.7388809 -4.9467306 -0.028592205
st. -0.49496558 3.8540902 2.910195 2.9370053 1.7624002 -0.40550965 1.4966364 -0.4924453 -2.8269572 0.21832265
whole 0.24451809 0.3004196 0.30533984 -1.6206979 -1.6777067 0.3421824 2.184761 2.1004937 -0.91425055 0.14686011
players 0.7402478 -0.062311787 -1.416104 -0.4283718 -0.79224414 -0.950236 0.99061763 1.8462859 -1.6950763 0.6832051
complex 0.7324185 -1.5043412 -0.7232095 -1.2173513 -1.7367282 1.4358488 1.2182347 1.1513056 -2.1506877 -0.16391486
treaty -1.0176016 2.3609645 2.2407017 0.0133752 0.6864044 -0.7107739 -0.23207867 2.00942 -0.9122124 1.1951944
albert 0.7818382 3.2481637 1.4762049 2.898051 2.4519455 -0.087195344 1.1440641 -0.69378716 -3.1558747 -0.4543206
account -0.3126315 0.7484247 -1.0388482 0.050935045 -0.8713585 0.27785352 2.9745078 2.990873 -0.87025875 -0.008926173
club -0.7973967 2.9057515 0.9696492 0.42940024 0.38423407 -0.40628964 1.4219834 0.15944421 -1.985118 0.085680746
nobel 1.6755402 3.6456113 1.1614757 0.21733737 0.411415 -2.304431 -0.88686067 -2.3852825 -7.21483 0.2579344
top -0.66790944 -0.3322704 -0.8588369 0.9712526 -0.63051265 -1.7774788 2.1870334 2.0141068 -1.309746 2.0837097
t 2.1818404 -1.9767302 -0.44965172 2.0199547 -0.42581013 2.2906344 0.099095106 -0.0013024381 -3.4769814 1.932229
things 2.1451774 -1.7783227 -1.2204971 -1.4002488 -1.3072708 0.87551874 1.7505237 3.4826758 -0.7532895 0.5060894
existence 0.3625578 -0.4032029 -0.89954364 -2.0055826 -2.0777907 1.1563493 2.6971674 3.4525185 -0.8385405 0.075430095
complete 0.09455883 -0.2630803 -0.527325 -1.0665686 -0.2953978 1.4788927 2.110476 1.4384798 -1.0247297 0.33099443
points -0.10193445 -1.9617097 -1.1496471 0.26382044 -1.7679396 0.49570742 1.619391 2.945072 -1.0689367 0.8968395
produce 0.30376336 -4.0531178 -3.1998167 -1.1995195 0.10441787 1.5374768 0.5934707 3.2977886 -1.5279586 -0.9287356
athens -1.4170338 2.846126 1.9121206 0.39218047 -0.98640937 -0.047038745 1.9754866 1.9575276 -1.2515668 0.24178831
future 0.33417788 0.8452145 0.04779655 -1.1671572 0.4524206 0.13541661 1.1067082 2.062886 -0.5084436 0.1591498
longer 0.0027532123 -3.7189574 -0.48834082 -2.0191593 -0.60339004 0.95126987 3.30421 1.9302453 -0.8052301 -0.34726655
specific 1.1669288 -1.7857668 -1.2481805 -3.1530752 -1.7103536 2.001772 0.33919665 2.2493265 -1.9876404 -0.5405005
ever 2.2572126 0.31847256 0.03865867 -0.47836146 0.301255 0.20687194 2.969278 2.8729105 0.5489046 -0.7858386
currently -0.246955 0.23360084 1.5891978 -1.1228442 -1.3784965 0.3953513 1.5014504 0.85238177 -1.3303243 0.68043584
remained -0.30155933 1.1724668 2.306108 -0.16030857 -0.8206813 -1.587913 1.5267538 2.2725403 -0.47958505 -1.8400475
troops -0.6838254 2.3265092 0.4584047 -1.321742 1.8507967 -3.0330076 -0.009391468 2.9657943 -0.72636557 0.5734357
congress -1.2379888 3.554657 1.9302303 -0.33050644 0.96004677 -0.28109193 -0.27380994 2.889939 -0.8966675 1.218708
successful 0.45564413 0.9838151 0.99994856 -1.1150694 -0.45795885 -0.9725803 2.3357067 0.71347874 -1.0596035 -0.9089928
discovered 1.5309838 0.5736669 2.7996213 0.548022 -0.9978759 -0.29232517 1.364705 0.48687825 -1.1960608 0.4861269
relatively 0.59103787 -1.7394078 -0.79039747 -2.3121595 -2.3503616 0.07218492 2.0306482 1.129381 -2.0981593 -0.3840612
better 2.9825356 -1.1649829 -2.1352286 -1.7040509 -1.6158769 -0.22013085 2.0377934 1.3436912 -1.7957783 -1.4183939
definition 0.2766765 -1.5398109 -0.21284483 -0.97176 -1.8459519 2.803896 1.9327741 2.1727397 -1.4676045 0.41670147
dead 1.3803824 0.18214673 0.076430246 0.63885635 0.058386035 -0.5329449 2.1471808 1.6798681 -0.61149955 0.47042564
japan -1.5308342 2.2002378 2.0325918 0.5549008 -0.7223164 -0.62963116 -0.7676362 1.3496217 -2.7927818 0.7317495
seven -1.2987865 0.13891596 0.48787403 0.7928328 -1.1285064 -2.3897557 2.4437423 1.6412245 -1.3290124 -0.088466495
release 0.17633888 0.8315095 -0.35608 1.9864868 0.46646097 -0.2555753 2.1688018 2.0123823 -1.0258117 1.445446
thomas 1.4551002 2.3539197 1.4917336 2.543671 2.315772 -0.12902136 -0.3758425 -1.0141493 -3.83327 0.176452
letters 0.38698512 -0.5029285 0.592184 0.31638554 -2.0388587 0.62855333 1.3586869 1.3016585 -1.7862791 -0.13879143
21 0.40109736 -0.3251403 1.0913589 3.7939408 0.45364487 -1.6634058 0.81277543 1.9770479 -2.4372895 3.9717312
california -1.8291808 2.0827737 2.9769993 1.2594792 0.65239924 -0.4855594 -0.32856548 0.6082894 -2.4798136 2.0105135
chemical 0.59922475 -2.8606863 -1.2913144 -2.7312021 -0.96961147 1.9770657 -0.51584023 1.4409103 -2.5525799 -0.499024
code -0.5244926 -0.7421238 -0.2632493 -0.5817929 -0.23723935 3.2391095 0.21984862 1.2962381 -1.897407 1.0596458
objects 1.2954612 -1.9915714 -1.6676757 -1.6444231 -2.2098687 1.5283597 0.7476103 2.8408704 -1.8833518 -0.4435433
male 1.5242621 -2.266908 -2.1685395 1.6507801 -0.86168593 -0.20401418 2.246647 0.92382133 -3.3093617 0.80289614
object 0.5715084 -1.7272438 -0.8272505 -1.3269811 -0.76302785 2.1436646 3.0195198 2.3381095 -1.1799634 0.664641
elected 0.24970487 2.5935643 2.8460443 -0.75692356 -0.366203 -2.034231 1.0494963 0.8687927 -1.6352994 1.1019074
1989 -0.016717816 2.144743 1.654703 2.7026026 1.1414578 -1.3322476 -0.124358974 1.0924197 -2.8969433 1.8075662
directly 0.8659454 -0.69911647 -0.8557497 -2.1714365 0.10836388 -0.5189158 0.014645529 3.0064218 -0.67214197 -0.3505528
1986 0.72632813 1.6216342 1.1565583 3.088502 1.5176224 -0.9094632 -0.14616041 0.5369372 -3.0933826 1.6947757
election 0.39035937 2.578062 1.7471433 0.7609443 1.1342797 -1.4485688 1.4112056 1.444792 -0.64628536 0.9108799
latter 0.42741227 0.3189452 1.149975 -0.74218744 -1.761682 0.34541428 2.3996477 1.5136561 -1.0854143 -0.48213285
working 0.8387941 1.6436312 -0.39612234 -1.1671832 -0.17266504 -0.27010635 1.2107695 1.5935807 -1.3885667 -0.35942116
exist 0.51127577 -2.3406477 -0.98155 -0.6997146 -1.6526047 2.0858479 0.76945055 3.799514 -1.1299514 -1.0786572
province -2.9230096 1.7259849 3.373429 0.35202396 -2.1452014 -0.93425626 0.64439136 1.5072883 -2.8186612 0.5426917
professional -0.4174338 1.4423907 0.03584479 -1.3421562 -0.09480594 0.7711801 0.30588576 -0.6108494 -3.1921208 -1.059266
wide -0.93751174 -2.3288498 -1.3764485 -2.513838 -1.225689 0.28591356 0.4334334 1.7068886 -2.2889364 0.07515482
issues -0.56338465 0.36731416 -1.2390246 -1.84223 -0.5423507 0.94462717 -0.11385192 1.8141224 -2.313247 -0.037472013
provided 0.87660795 -0.27233428 0.023681324 -2.01642 -0.047445327 1.1104509 0.3320005 2.1269605 -1.0228434 0.28308412
across -2.6747072 -1.0137919 1.3593874 -1.720504 0.09913444 -2.245539 0.74631435 1.8066446 -0.87586117 0.8908919
com -0.8978237 1.1050161 -0.9629129 0.4898642 1.9414016 2.8901148 -0.011879866 0.8505769 -3.1950252 1.531875
interest -0.40404233 0.740835 -0.3593216 -1.9123275 -0.96471643 0.5556707 1.6270788 1.4882506 -1.4950141 -1.1107239
online -1.2340943 1.4567971 -0.46523467 -0.98028624 1.7320951 3.9649322 -0.24002957 0.5876792 -3.3036735 1.5011907
treatment 0.75702274 -1.1349007 -1.8113153 -1.7833464 -1.3630294 1.574069 0.2880559 2.1593604 -2.1616473 -1.3799537
course -0.28962287 0.28612837 -0.28764853 -0.5280943 -1.1160929 -0.52788895 2.5677605 2.7180812 -0.45904157 0.6295126
